#ifndef WEIGHTS_H
#define WEIGHTS_H

// Conv Weights: 150 eleman
const float conv_weights[150] = {
0.085868f, -0.164717f, -0.456202f, -0.425000f, -0.494069f, -0.082497f, 0.295141f, 0.227050f, -0.000572f, -0.234165f, 
0.283272f, 0.449891f, 0.555778f, 0.535707f, 0.087617f, -0.090806f, -0.081389f, 0.155701f, 0.360758f, 0.385724f, 
-0.310428f, -0.464675f, -0.506089f, -0.173230f, -0.028988f, -0.067948f, 0.051631f, 0.295930f, 0.319759f, 0.150201f, 
0.504684f, 0.703674f, 0.473266f, 0.343292f, 0.418140f, 0.133326f, 0.165183f, 0.317172f, 0.206984f, 0.300582f, 
-0.526515f, -0.545107f, -0.339363f, -0.148840f, -0.071202f, -1.071613f, -0.768953f, -0.943870f, -0.697947f, -0.293219f, 
0.569317f, 0.342790f, -0.430080f, -0.645095f, -0.254918f, 0.712722f, 0.277347f, -0.443714f, -0.594836f, -0.112205f, 
0.533616f, 0.439607f, -0.345050f, -0.461996f, -0.169236f, 0.298659f, 0.116244f, -0.083426f, -0.113625f, -0.144174f, 
0.072881f, 0.305802f, 0.148947f, 0.108401f, 0.079972f, 0.001697f, -0.196371f, -0.341173f, -0.082861f, 0.071524f, 
-0.536069f, -0.157594f, 0.044564f, 0.090285f, 0.311337f, -0.126393f, 0.000185f, 0.204087f, 0.391730f, 0.249794f, 
-0.165035f, 0.217051f, 0.169416f, 0.209921f, -0.244071f, 0.334960f, 0.277022f, 0.160632f, -0.018124f, -0.369308f, 
-0.076152f, -0.231453f, 0.186473f, 0.397924f, 0.351397f, -0.441267f, -0.188364f, -0.166747f, 0.361097f, 0.321386f, 
-0.710571f, -0.303336f, 0.028605f, 0.510221f, 0.283978f, -0.712867f, -0.541882f, 0.153610f, 0.307136f, 0.299755f, 
-0.805790f, -0.466097f, 0.276133f, 0.484663f, 0.230511f, 0.082185f, -0.080841f, -0.225105f, -0.328304f, -0.296050f, 
0.239085f, 0.089178f, -0.291719f, -0.192331f, -0.474935f, 0.081038f, 0.204894f, 0.124995f, -0.020665f, -0.230609f, 
0.166312f, 0.369996f, 0.416154f, 0.304058f, -0.166107f, -0.128519f, 0.137838f, 0.126905f, 0.430677f, 0.199558f, 
};

const float conv_biases[6] = {
-0.114135f, 0.103347f, -0.198327f, -0.209611f, -0.203338f, -0.274598f, };

// FC Weights: 11760 eleman
const float fc_weights[11760] = {
0.051067f, 0.045338f, 0.022192f, -0.058886f, 0.068985f, 0.026321f, 0.043084f, 0.028889f, -0.049652f, 0.080299f, 
0.089999f, 0.014889f, -0.018294f, 0.010718f, -0.027335f, -0.005838f, -0.040528f, 0.012465f, -0.113608f, 0.064240f, 
0.020534f, 0.006342f, -0.121227f, -0.035941f, -0.148795f, 0.022176f, 0.202812f, 0.027530f, -0.078488f, 0.032488f, 
-0.129165f, -0.054061f, 0.009460f, -0.019206f, -0.145038f, -0.166329f, 0.175033f, -0.039459f, -0.122025f, -0.046663f, 
-0.034173f, -0.074570f, 0.058308f, -0.113284f, -0.254573f, -0.175675f, 0.171158f, -0.130187f, -0.170886f, -0.124373f, 
-0.086054f, 0.098577f, -0.053004f, -0.118540f, -0.240154f, -0.127643f, 0.165372f, -0.127057f, -0.237861f, -0.173319f, 
-0.049344f, 0.027922f, -0.028528f, -0.198666f, -0.155659f, -0.243322f, 0.144800f, -0.050816f, -0.329420f, -0.191970f, 
0.011140f, 0.039398f, 0.186787f, -0.330726f, -0.360673f, -0.040937f, -0.004821f, -0.071181f, -0.343238f, -0.162452f, 
-0.002406f, -0.182764f, 0.042813f, -0.249902f, -0.308901f, -0.075651f, 0.138300f, -0.145967f, -0.143800f, -0.172720f, 
-0.074834f, -0.079245f, -0.189181f, -0.143630f, -0.187628f, -0.051169f, 0.222291f, -0.070832f, -0.225355f, -0.182210f, 
-0.062714f, -0.098983f, -0.204543f, -0.124563f, -0.251961f, 0.037471f, 0.289698f, 0.004536f, -0.090724f, -0.023705f, 
0.023162f, -0.035456f, -0.024427f, -0.147185f, -0.103050f, 0.043967f, 0.037147f, 0.060499f, -0.143484f, 0.013143f, 
0.069769f, 0.066663f, -0.068374f, -0.105427f, -0.108056f, 0.037598f, 0.044203f, 0.054477f, -0.126206f, 0.069115f, 
-0.030089f, 0.097530f, -0.095603f, -0.062208f, 0.026784f, -0.082322f, 0.069093f, -0.001781f, -0.052991f, -0.042336f, 
0.064399f, 0.077082f, -0.037048f, -0.019615f, -0.045234f, -0.108352f, 0.008988f, 0.069786f, -0.137854f, 0.052403f, 
-0.061390f, 0.128514f, -0.175891f, 0.119241f, -0.047623f, -0.191989f, 0.057424f, -0.011900f, -0.151529f, 0.011768f, 
-0.125495f, -0.019206f, -0.019002f, 0.044075f, -0.147136f, -0.173559f, 0.082825f, -0.267690f, -0.083421f, -0.056125f, 
-0.006816f, 0.081780f, 0.034144f, 0.079497f, -0.171127f, -0.164524f, 0.195754f, -0.354551f, -0.111175f, -0.330718f, 
-0.115012f, 0.090535f, 0.151742f, 0.045709f, -0.216566f, -0.061238f, 0.084154f, -0.249440f, -0.266300f, -0.305364f, 
-0.024016f, -0.026951f, 0.169108f, 0.092298f, -0.223596f, -0.134067f, 0.009881f, -0.260538f, -0.067102f, -0.317127f, 
-0.058580f, 0.033715f, 0.135261f, 0.172672f, -0.156647f, -0.142860f, -0.064105f, -0.403687f, -0.106376f, -0.621525f, 
-0.094409f, -0.185409f, 0.165869f, 0.129270f, -0.275554f, -0.042256f, -0.119074f, -0.303508f, -0.093398f, -0.626866f, 
0.024837f, -0.009666f, 0.091021f, 0.012916f, -0.194519f, 0.116694f, -0.093959f, -0.333493f, -0.084199f, -0.332193f, 
-0.075839f, -0.117612f, -0.115927f, 0.023490f, -0.161588f, 0.170491f, -0.088188f, -0.140343f, 0.022843f, -0.212940f, 
-0.154321f, -0.156282f, -0.116160f, 0.030391f, -0.064636f, 0.153014f, 0.019403f, -0.066366f, 0.003174f, -0.065809f, 
-0.183248f, -0.120331f, -0.131234f, -0.177607f, -0.065612f, 0.004650f, -0.004475f, -0.038051f, 0.066314f, -0.131748f, 
-0.057608f, -0.092934f, -0.044964f, -0.037348f, -0.191472f, 0.027494f, 0.016612f, -0.018283f, 0.080090f, -0.016167f, 
0.015229f, 0.049770f, -0.083144f, -0.090735f, -0.024494f, -0.072725f, -0.006515f, 0.072381f, -0.088668f, 0.045829f, 
-0.030813f, 0.042640f, 0.055555f, -0.054413f, -0.026581f, 0.007086f, -0.037060f, 0.056820f, -0.094100f, -0.104760f, 
-0.037111f, 0.162488f, -0.093140f, 0.022326f, -0.065941f, -0.099559f, 0.143795f, 0.026233f, -0.257532f, -0.222072f, 
-0.021165f, 0.027764f, -0.045884f, 0.077636f, -0.109569f, -0.044928f, -0.042714f, 0.167378f, -0.043878f, -0.159339f, 
-0.076555f, 0.037116f, 0.026956f, 0.063266f, -0.046353f, -0.081016f, 0.031179f, 0.170814f, -0.057279f, -0.347351f, 
-0.092695f, 0.014062f, 0.063216f, 0.049630f, -0.019607f, -0.035860f, -0.064269f, 0.246719f, -0.191236f, -0.279770f, 
-0.088476f, -0.012496f, 0.025042f, 0.136530f, 0.082135f, -0.001719f, -0.187455f, 0.146650f, -0.000372f, -0.194351f, 
0.018458f, -0.211258f, 0.092306f, 0.088177f, 0.055060f, -0.073289f, -0.209760f, 0.036558f, 0.089524f, -0.066824f, 
-0.023241f, -0.251918f, 0.013590f, 0.061409f, -0.133492f, -0.029130f, -0.092220f, 0.144620f, 0.075128f, 0.069745f, 
-0.016867f, -0.249280f, 0.080540f, 0.086531f, -0.134306f, 0.011083f, -0.069081f, -0.028698f, 0.013322f, 0.112527f, 
0.085838f, -0.218990f, 0.055991f, 0.008621f, -0.085848f, -0.004074f, -0.035563f, -0.014159f, 0.138398f, 0.016110f, 
0.026648f, -0.153728f, 0.060729f, -0.077137f, -0.060199f, -0.067555f, -0.014727f, -0.217237f, 0.141639f, -0.165037f, 
-0.081376f, -0.015647f, -0.045616f, 0.015944f, 0.122985f, 0.086535f, 0.044883f, -0.202839f, 0.008485f, -0.427118f, 
-0.152590f, -0.053628f, -0.093945f, -0.124072f, 0.163740f, 0.069366f, 0.040829f, -0.244942f, 0.056811f, -0.325235f, 
-0.121324f, -0.111929f, -0.043319f, -0.205975f, 0.010366f, 0.019953f, 0.029992f, -0.117765f, 0.114303f, -0.131120f, 
-0.040035f, -0.013000f, -0.021971f, 0.033058f, -0.064052f, -0.117944f, -0.077396f, 0.027242f, -0.059815f, -0.308562f, 
-0.088246f, -0.004604f, 0.091877f, 0.060723f, 0.071934f, -0.127489f, -0.039783f, -0.022801f, -0.037820f, -0.304398f, 
-0.052102f, 0.038215f, -0.022453f, 0.026729f, 0.056009f, 0.047884f, -0.107314f, 0.072077f, 0.028905f, -0.222148f, 
-0.052112f, -0.007515f, -0.011461f, -0.014084f, 0.040148f, -0.028545f, -0.059993f, 0.197168f, -0.055961f, -0.234486f, 
-0.034457f, -0.107306f, -0.007324f, -0.001834f, 0.031899f, 0.084139f, -0.255421f, 0.241885f, -0.026432f, -0.160007f, 
-0.045784f, -0.075855f, -0.039447f, 0.128454f, -0.058942f, 0.082890f, -0.302250f, 0.088373f, -0.034787f, -0.047145f, 
-0.049264f, -0.215250f, 0.057921f, 0.160922f, -0.306007f, -0.026642f, -0.290371f, 0.130552f, 0.056579f, 0.065432f, 
0.009434f, -0.325594f, 0.053246f, 0.043349f, -0.301096f, -0.019444f, -0.139736f, 0.013627f, 0.139445f, 0.162774f, 
0.004994f, -0.359803f, 0.029776f, 0.043658f, -0.362268f, 0.050046f, -0.194525f, -0.064262f, 0.069445f, 0.177108f, 
0.012312f, -0.166838f, -0.033258f, -0.021540f, -0.230015f, 0.062380f, -0.069912f, -0.026792f, 0.091071f, 0.085159f, 
0.035453f, -0.041643f, -0.046630f, -0.144377f, -0.121453f, 0.115936f, -0.102369f, -0.040884f, 0.045561f, -0.010640f, 
0.072408f, -0.027472f, -0.062910f, -0.153295f, 0.037876f, 0.051670f, -0.015697f, -0.141691f, 0.047278f, 0.013479f, 
0.010795f, -0.076278f, -0.073647f, -0.113139f, 0.068411f, -0.031531f, 0.059073f, -0.088972f, 0.059161f, -0.072234f, 
-0.124180f, -0.285921f, -0.134516f, -0.065574f, 0.030214f, 0.085155f, 0.004430f, -0.186616f, -0.034860f, -0.115397f, 
0.122939f, -0.023602f, -0.014483f, -0.027503f, -0.061525f, -0.229907f, -0.182938f, 0.058900f, -0.021067f, -0.137856f, 
0.005356f, -0.156234f, 0.043161f, 0.037184f, 0.000516f, -0.168961f, -0.088850f, 0.076531f, -0.112239f, -0.130723f, 
0.005060f, -0.007302f, 0.038701f, 0.134093f, -0.023784f, -0.157465f, -0.099831f, 0.196109f, 0.037327f, -0.079102f, 
-0.045120f, 0.049907f, -0.048305f, 0.146891f, -0.076849f, -0.017585f, -0.097152f, 0.280061f, 0.025592f, -0.098291f, 
0.006281f, 0.035736f, -0.064758f, -0.031939f, -0.218356f, -0.105852f, -0.260557f, 0.257600f, 0.047394f, -0.072707f, 
0.007391f, -0.093568f, 0.052736f, -0.011378f, -0.145124f, -0.045571f, -0.248234f, 0.113072f, 0.153698f, -0.032573f, 
0.048506f, -0.195345f, -0.046599f, 0.036720f, -0.310300f, 0.085101f, -0.269107f, 0.079833f, 0.110972f, 0.161681f, 
0.002699f, -0.148335f, -0.004573f, -0.029265f, -0.181655f, 0.120617f, -0.267706f, -0.037752f, 0.119927f, 0.079700f, 
0.070935f, -0.156855f, -0.051973f, -0.018135f, -0.274080f, 0.147534f, -0.145255f, 0.098111f, 0.055799f, 0.093353f, 
0.056745f, -0.178031f, -0.103636f, -0.055610f, -0.191693f, 0.254914f, -0.088439f, 0.066202f, 0.085919f, 0.033803f, 
0.031289f, -0.134292f, -0.157638f, -0.144761f, -0.023476f, 0.092085f, 0.018892f, -0.109931f, 0.070564f, 0.061763f, 
-0.083493f, -0.021327f, -0.072053f, -0.099296f, -0.006398f, 0.063154f, -0.002496f, -0.082509f, 0.142746f, 0.013603f, 
-0.022305f, -0.117181f, -0.141660f, -0.189725f, 0.021473f, 0.152352f, -0.133740f, -0.070469f, 0.045877f, -0.104477f, 
-0.114040f, -0.336815f, -0.176453f, -0.406956f, 0.083779f, 0.123695f, -0.281763f, -0.170097f, 0.052010f, -0.218730f, 
0.065749f, 0.018233f, -0.025310f, 0.081571f, -0.137275f, -0.161988f, -0.234131f, 0.215702f, -0.078988f, -0.188429f, 
-0.106721f, -0.082434f, 0.081912f, 0.052155f, -0.110327f, -0.041015f, -0.212000f, -0.003539f, -0.006619f, -0.000813f, 
-0.013425f, -0.209043f, 0.074957f, 0.021760f, -0.098642f, -0.112702f, -0.027159f, 0.089301f, 0.032356f, -0.091995f, 
-0.067284f, -0.049430f, 0.085365f, 0.050616f, -0.102480f, -0.150290f, -0.079931f, 0.131565f, 0.087578f, -0.048842f, 
-0.138424f, -0.143657f, 0.014213f, -0.009797f, -0.088967f, -0.001429f, -0.109888f, 0.141322f, 0.129476f, 0.111987f, 
-0.093647f, -0.214711f, -0.069687f, -0.112883f, -0.150273f, -0.022058f, -0.248015f, -0.062612f, 0.274370f, 0.189727f, 
-0.093415f, -0.098158f, -0.115655f, -0.058310f, -0.219256f, 0.121939f, -0.133908f, -0.099067f, 0.253404f, 0.062553f, 
-0.012169f, -0.092473f, -0.045766f, -0.058040f, -0.191731f, 0.192111f, -0.028844f, 0.010570f, 0.069149f, 0.128684f, 
-0.013544f, -0.063848f, -0.049059f, 0.004213f, -0.355682f, 0.248681f, 0.036462f, 0.036891f, -0.059071f, 0.007961f, 
-0.087956f, -0.062668f, -0.131840f, -0.074268f, -0.207518f, 0.213369f, 0.083479f, 0.080088f, 0.062147f, -0.019541f, 
0.008298f, -0.005049f, -0.156545f, -0.039058f, -0.090246f, 0.104991f, 0.073103f, 0.049224f, 0.189448f, 0.083593f, 
-0.027488f, -0.079345f, -0.079453f, -0.104050f, -0.060474f, 0.082029f, 0.033706f, 0.002712f, 0.139099f, -0.065162f, 
-0.058976f, -0.106516f, -0.058049f, -0.057192f, -0.182316f, 0.230288f, -0.074848f, -0.110718f, 0.049468f, 0.019277f, 
-0.023905f, -0.135745f, -0.033185f, -0.371680f, -0.218028f, 0.223313f, -0.229375f, -0.273282f, 0.006503f, -0.149882f, 
0.015604f, 0.164237f, -0.123589f, -0.075109f, -0.191612f, -0.035212f, -0.081221f, 0.152065f, 0.019168f, -0.066794f, 
0.018469f, 0.067974f, -0.114154f, -0.038910f, -0.010621f, -0.115071f, -0.094891f, 0.196177f, 0.068574f, -0.000451f, 
-0.069857f, -0.031766f, 0.017539f, -0.018836f, 0.025479f, -0.057501f, -0.059997f, 0.119984f, 0.017466f, -0.035188f, 
-0.178291f, 0.120549f, -0.084345f, 0.083035f, -0.029706f, -0.018094f, -0.161313f, 0.076531f, -0.023098f, 0.089147f, 
-0.170715f, -0.127725f, 0.036751f, -0.109067f, -0.029479f, 0.019652f, -0.081668f, -0.002641f, 0.151457f, 0.031475f, 
-0.019905f, -0.338133f, 0.063862f, -0.030114f, 0.107703f, -0.056863f, -0.128185f, -0.252809f, 0.205012f, 0.063394f, 
-0.187027f, -0.181750f, -0.011176f, 0.002232f, 0.052102f, 0.101704f, -0.200572f, -0.298116f, 0.176825f, 0.112039f, 
-0.290446f, -0.250329f, -0.057288f, 0.100315f, -0.020368f, 0.189764f, 0.040468f, -0.190516f, 0.038906f, 0.116919f, 
-0.188582f, -0.065841f, -0.213902f, 0.072234f, -0.109908f, 0.110596f, 0.151941f, -0.008652f, 0.023131f, -0.019183f, 
-0.177187f, -0.175891f, -0.136056f, 0.087679f, 0.015655f, 0.087261f, 0.173004f, 0.019706f, 0.139022f, -0.130328f, 
-0.035209f, -0.141604f, -0.066749f, -0.059894f, 0.083108f, -0.024035f, 0.190664f, 0.051473f, 0.008385f, -0.081221f, 
-0.041738f, 0.041790f, -0.052026f, -0.142009f, 0.170907f, 0.051140f, 0.078667f, -0.011703f, -0.005350f, 0.015608f, 
0.046776f, -0.110989f, 0.181752f, -0.262252f, 0.034857f, -0.174643f, 0.109443f, -0.093083f, 0.027433f, 0.025616f, 
-0.091697f, -0.272571f, 0.153515f, -0.276461f, -0.183756f, 0.154040f, -0.034457f, 0.019913f, -0.137921f, -0.336278f, 
-0.133985f, 0.162457f, 0.017219f, -0.002300f, 0.150476f, -0.103477f, -0.179263f, 0.075648f, -0.113113f, -0.128266f, 
-0.028349f, 0.032968f, 0.059288f, 0.034338f, 0.079643f, -0.123214f, -0.132147f, -0.009729f, -0.066525f, 0.052863f, 
-0.022824f, -0.017013f, -0.032814f, -0.012562f, 0.132089f, -0.036018f, -0.100792f, -0.100089f, 0.067450f, -0.072543f, 
-0.089460f, 0.007570f, -0.025372f, -0.079997f, 0.147768f, -0.019370f, -0.193279f, -0.166627f, 0.067758f, -0.022476f, 
-0.141023f, -0.065771f, -0.093241f, 0.013839f, 0.033282f, 0.039893f, -0.203999f, -0.113649f, 0.021938f, 0.132740f, 
-0.213028f, -0.355985f, 0.018951f, -0.029258f, 0.088280f, 0.036131f, -0.091734f, -0.250546f, 0.065579f, 0.186574f, 
-0.195053f, -0.167923f, 0.008766f, -0.003826f, 0.176978f, 0.035275f, -0.004167f, -0.373944f, 0.103419f, 0.044028f, 
-0.267533f, -0.269936f, -0.036170f, 0.147891f, 0.110511f, 0.040524f, 0.080423f, -0.232927f, -0.042436f, 0.088160f, 
-0.257531f, -0.130342f, -0.082958f, 0.065902f, -0.011857f, -0.016733f, 0.224534f, -0.087554f, -0.033319f, -0.093056f, 
-0.170779f, -0.301251f, -0.180620f, 0.073501f, 0.118538f, -0.070140f, 0.107753f, 0.163958f, 0.062836f, -0.221867f, 
-0.159781f, -0.181906f, -0.036941f, 0.007997f, 0.053061f, 0.004876f, 0.139085f, 0.212870f, 0.019324f, -0.163284f, 
-0.035313f, -0.064713f, 0.012226f, -0.133453f, 0.115502f, 0.005697f, 0.080233f, 0.079459f, -0.049674f, -0.084327f, 
0.016377f, -0.041365f, 0.248911f, -0.151946f, -0.091070f, -0.046930f, 0.036993f, -0.055183f, -0.122445f, -0.225805f, 
0.027656f, -0.058267f, 0.323404f, -0.035152f, -0.093003f, -0.027488f, -0.070211f, -0.158279f, -0.096178f, -0.405937f, 
-0.051264f, 0.018212f, 0.118255f, 0.138616f, -0.008482f, -0.107742f, -0.136161f, -0.094300f, -0.208512f, -0.249567f, 
-0.025949f, -0.158658f, 0.124188f, 0.050176f, -0.068966f, 0.096203f, -0.263148f, 0.002335f, -0.045341f, -0.217986f, 
-0.001848f, -0.250346f, -0.000299f, 0.001190f, -0.005749f, 0.183792f, -0.093961f, -0.100989f, -0.085265f, -0.036363f, 
-0.088732f, -0.147350f, -0.074505f, 0.065846f, -0.004853f, 0.147039f, -0.045278f, -0.057707f, -0.038175f, 0.125614f, 
-0.110159f, -0.173683f, -0.048984f, -0.023305f, 0.107180f, 0.140733f, -0.136575f, -0.128309f, 0.023033f, 0.187439f, 
-0.253534f, -0.316052f, -0.036535f, 0.013783f, 0.024572f, 0.061596f, -0.073967f, -0.198539f, -0.072523f, 0.120144f, 
-0.190128f, -0.217855f, -0.030983f, 0.063890f, 0.191661f, 0.010747f, -0.044968f, -0.199791f, 0.091116f, 0.097526f, 
-0.209584f, -0.245546f, -0.065100f, 0.030390f, 0.077117f, 0.026149f, 0.009393f, -0.146491f, 0.150383f, -0.152480f, 
-0.165541f, -0.053701f, -0.044440f, 0.097314f, 0.014856f, -0.059319f, 0.053324f, 0.084390f, 0.130988f, -0.213473f, 
-0.041382f, -0.315077f, -0.065261f, 0.067573f, 0.147747f, -0.023097f, 0.026168f, 0.156886f, 0.070900f, -0.227742f, 
-0.082583f, -0.115916f, 0.053567f, -0.050514f, 0.042582f, -0.003345f, 0.088219f, 0.093124f, 0.023144f, -0.250729f, 
-0.088685f, -0.004882f, 0.125304f, -0.094807f, 0.138822f, -0.074584f, 0.035577f, 0.006835f, -0.028273f, -0.209280f, 
0.046055f, -0.047946f, 0.151919f, -0.004942f, -0.006068f, -0.064315f, 0.022103f, -0.112204f, -0.050597f, -0.192943f, 
-0.103319f, -0.128886f, 0.178538f, -0.130319f, -0.068076f, 0.041061f, 0.056821f, -0.081770f, 0.035236f, -0.335639f, 
-0.065889f, -0.110651f, 0.030589f, 0.018387f, 0.013788f, -0.074779f, -0.076920f, 0.020980f, -0.081000f, -0.249927f, 
-0.008773f, -0.227016f, -0.024103f, 0.023885f, -0.117982f, 0.074635f, -0.231769f, -0.053922f, 0.064273f, -0.292679f, 
0.003022f, -0.104123f, -0.050112f, 0.149945f, -0.062110f, 0.155392f, -0.138564f, -0.179213f, -0.185600f, -0.068873f, 
-0.090860f, -0.006721f, 0.016258f, 0.059643f, -0.018400f, 0.181198f, -0.081763f, -0.183425f, -0.134158f, 0.037986f, 
-0.062752f, -0.091363f, -0.047781f, 0.059591f, -0.057840f, 0.124356f, -0.032003f, -0.161863f, -0.194303f, 0.191744f, 
-0.031062f, -0.197662f, -0.098352f, 0.062335f, 0.019566f, 0.122342f, 0.033540f, -0.196015f, -0.110929f, 0.229916f, 
-0.120673f, -0.204138f, -0.009359f, 0.167797f, 0.087071f, -0.034073f, 0.022183f, -0.072177f, 0.133705f, 0.023171f, 
-0.089427f, -0.018422f, -0.008645f, 0.122148f, 0.082347f, -0.004682f, -0.064316f, -0.041654f, 0.124573f, -0.223097f, 
0.012531f, -0.045284f, 0.091374f, 0.007225f, 0.028654f, -0.152630f, -0.037776f, 0.028631f, 0.089575f, -0.267193f, 
-0.036523f, -0.113026f, 0.027211f, -0.029359f, -0.002476f, -0.029889f, 0.049497f, 0.173152f, 0.111918f, -0.181523f, 
0.018057f, 0.095653f, 0.097730f, -0.074942f, -0.041652f, -0.056887f, -0.021645f, 0.078225f, -0.041918f, -0.214851f, 
-0.039792f, 0.111434f, 0.179862f, -0.036469f, -0.045244f, -0.047713f, -0.065750f, 0.014543f, 0.016342f, -0.134854f, 
-0.006901f, 0.024392f, 0.081186f, -0.125831f, -0.068378f, -0.064847f, -0.039008f, -0.087269f, 0.051651f, -0.161478f, 
-0.032003f, -0.015901f, 0.115461f, -0.247370f, -0.131017f, 0.023580f, -0.004715f, -0.148264f, -0.093718f, -0.062540f, 
-0.037072f, -0.063157f, 0.055944f, -0.043314f, -0.157845f, -0.021667f, -0.094361f, -0.250583f, -0.164290f, -0.136185f, 
-0.120806f, 0.095027f, -0.062286f, -0.060416f, -0.021870f, -0.002810f, -0.138660f, -0.060820f, -0.084333f, -0.049414f, 
-0.050489f, 0.106781f, -0.128740f, 0.152796f, -0.137890f, 0.027046f, -0.085272f, -0.186076f, -0.063845f, -0.020733f, 
-0.079682f, 0.160038f, -0.143465f, 0.056799f, -0.111339f, 0.092318f, -0.028558f, -0.263062f, -0.113738f, 0.089228f, 
-0.059969f, 0.134927f, -0.033543f, 0.131818f, -0.104547f, 0.096547f, 0.013676f, -0.223316f, -0.046828f, 0.153341f, 
0.017741f, -0.022356f, -0.016704f, 0.037301f, -0.169218f, 0.118175f, 0.147071f, -0.203363f, 0.020738f, 0.075644f, 
0.017572f, -0.053883f, 0.029251f, -0.026219f, -0.216346f, 0.066263f, 0.148319f, -0.227152f, 0.028121f, -0.121374f, 
-0.027649f, -0.039109f, 0.047306f, -0.028584f, -0.209156f, -0.071095f, 0.134764f, -0.104122f, 0.131150f, -0.163865f, 
-0.094644f, 0.067486f, 0.152784f, -0.007272f, -0.080686f, -0.037517f, 0.069392f, -0.076816f, 0.109782f, -0.155569f, 
-0.122012f, 0.133791f, 0.203551f, -0.060355f, -0.072327f, -0.025019f, 0.057894f, -0.179399f, -0.068777f, -0.142857f, 
-0.106346f, 0.221673f, 0.253908f, -0.166200f, -0.043189f, -0.081142f, -0.035783f, -0.136088f, -0.040702f, -0.075687f, 
-0.026376f, 0.048595f, 0.216691f, -0.045286f, 0.022500f, -0.032693f, -0.072119f, -0.169656f, -0.045100f, 0.007575f, 
-0.092560f, 0.094624f, 0.137088f, -0.105074f, -0.133812f, -0.000004f, -0.041362f, -0.259100f, -0.053934f, 0.095046f, 
-0.146071f, 0.085764f, 0.112063f, -0.141984f, -0.244264f, -0.008156f, -0.077687f, -0.132203f, -0.072901f, 0.074676f, 
-0.013489f, -0.137212f, -0.019416f, 0.076187f, -0.102475f, 0.085825f, 0.019193f, -0.111569f, -0.183108f, -0.051574f, 
-0.280392f, 0.052826f, -0.116015f, 0.133935f, -0.204566f, 0.021883f, -0.189026f, 0.084153f, -0.123765f, -0.089517f, 
-0.056970f, 0.121415f, -0.157688f, 0.124976f, -0.148424f, -0.005063f, -0.432100f, -0.069113f, -0.072658f, 0.024848f, 
-0.029466f, 0.063108f, -0.020030f, 0.028507f, -0.073671f, 0.032238f, -0.240397f, -0.112059f, 0.083634f, -0.044013f, 
0.108148f, -0.066875f, -0.088360f, 0.074932f, -0.119798f, 0.092870f, -0.117117f, -0.238610f, 0.001572f, 0.090595f, 
0.061773f, -0.058555f, -0.066382f, 0.039413f, -0.227437f, 0.028623f, 0.068366f, -0.253487f, 0.034491f, -0.003797f, 
0.075543f, -0.158715f, -0.051958f, 0.031484f, -0.204614f, -0.009361f, 0.149584f, -0.257848f, 0.113897f, 0.004433f, 
0.092086f, -0.009501f, -0.042315f, 0.016629f, -0.271236f, 0.020769f, 0.130691f, -0.109303f, 0.063890f, -0.035269f, 
0.036070f, 0.078560f, 0.156635f, 0.015533f, -0.074583f, -0.125221f, 0.062744f, -0.127059f, 0.021199f, -0.098480f, 
-0.094296f, 0.114123f, 0.290931f, -0.136365f, -0.029389f, -0.062376f, -0.034097f, -0.176689f, 0.050503f, -0.033534f, 
-0.103271f, 0.044662f, 0.218627f, -0.116449f, 0.061976f, -0.031321f, 0.005416f, -0.123225f, -0.033361f, -0.025115f, 
-0.026190f, -0.052329f, 0.069847f, -0.159088f, 0.098276f, -0.047777f, -0.010732f, -0.218737f, -0.041473f, 0.132330f, 
0.001869f, -0.068877f, 0.032072f, -0.174856f, -0.046728f, -0.012822f, -0.170175f, -0.251340f, -0.020289f, 0.146037f, 
-0.136777f, 0.064414f, 0.030959f, -0.169694f, -0.144812f, 0.101172f, -0.135885f, -0.066763f, -0.069171f, 0.116472f, 
0.081460f, -0.036991f, -0.174126f, 0.005104f, 0.102548f, 0.104614f, 0.031682f, -0.016484f, -0.043281f, -0.043167f, 
-0.018079f, -0.127844f, -0.300812f, 0.076627f, -0.062776f, -0.053413f, -0.057093f, 0.010322f, -0.246529f, 0.155480f, 
-0.189680f, -0.129058f, -0.241008f, 0.154692f, -0.108028f, 0.013809f, -0.030714f, -0.062447f, -0.162744f, 0.071909f, 
-0.148029f, -0.110452f, -0.220128f, 0.306117f, -0.108041f, 0.035776f, -0.270827f, -0.071688f, -0.000755f, -0.139480f, 
-0.089451f, -0.227367f, -0.263549f, 0.199438f, -0.191905f, 0.124825f, -0.282601f, -0.067457f, 0.143155f, -0.048024f, 
0.016504f, -0.044109f, -0.096429f, 0.117166f, -0.053724f, 0.140713f, -0.262028f, -0.203693f, 0.149121f, -0.076584f, 
0.021678f, -0.115666f, 0.056627f, 0.129351f, -0.069188f, 0.152146f, -0.176439f, -0.086668f, 0.190067f, -0.094957f, 
-0.002611f, -0.105454f, 0.019499f, -0.001895f, -0.052066f, 0.002000f, -0.040236f, -0.159323f, 0.060888f, -0.096918f, 
-0.118019f, 0.016371f, 0.078082f, -0.020561f, 0.060084f, 0.000494f, -0.043847f, -0.058614f, 0.056389f, -0.058283f, 
-0.143155f, 0.096481f, 0.177565f, -0.095005f, 0.038018f, -0.095310f, -0.039299f, -0.067029f, -0.009009f, -0.000958f, 
-0.230244f, 0.096352f, 0.050426f, -0.074313f, -0.014002f, 0.043596f, -0.209324f, -0.042992f, 0.041561f, 0.093346f, 
-0.166090f, -0.066455f, 0.089970f, -0.083088f, 0.035959f, -0.015734f, -0.107091f, -0.099869f, -0.083770f, 0.144503f, 
-0.117009f, -0.180751f, 0.087742f, -0.110149f, -0.021839f, 0.057309f, -0.110012f, -0.202125f, -0.000767f, 0.059403f, 
-0.054190f, 0.007150f, 0.048714f, -0.122593f, -0.053320f, -0.008234f, -0.066134f, -0.090448f, -0.168171f, 0.064356f, 
0.043954f, 0.138477f, -0.094285f, -0.092450f, 0.092899f, -0.071838f, 0.046797f, 0.029238f, -0.116866f, 0.032310f, 
0.078252f, 0.001615f, -0.011916f, -0.120181f, -0.054937f, -0.016600f, -0.043030f, -0.075511f, -0.165721f, 0.158186f, 
-0.088575f, 0.012631f, -0.158165f, 0.006149f, 0.053415f, -0.057840f, 0.023873f, -0.111937f, -0.190635f, 0.153372f, 
-0.186316f, -0.083160f, -0.244672f, 0.060678f, -0.114390f, -0.139774f, -0.018140f, -0.164899f, -0.122917f, 0.176169f, 
-0.147691f, -0.077334f, -0.223278f, 0.096647f, -0.198226f, -0.209024f, -0.113363f, 0.107682f, -0.134971f, 0.066173f, 
-0.204956f, -0.064023f, -0.220571f, 0.081067f, -0.084102f, -0.087842f, -0.094917f, 0.075195f, -0.186466f, 0.144040f, 
-0.248357f, -0.203651f, -0.263786f, 0.000255f, -0.241695f, -0.033759f, -0.176247f, 0.098855f, -0.139918f, 0.204150f, 
-0.127121f, -0.206277f, -0.235309f, -0.023799f, -0.207031f, -0.029471f, -0.138018f, 0.011215f, -0.202414f, 0.280582f, 
-0.138559f, -0.092993f, -0.285176f, -0.018845f, -0.140315f, -0.025215f, -0.201328f, 0.077651f, -0.218597f, 0.189101f, 
-0.175418f, -0.110030f, -0.141665f, -0.063861f, -0.097716f, -0.109382f, -0.102620f, 0.072503f, -0.047454f, 0.192541f, 
-0.123608f, -0.076889f, -0.033207f, -0.109534f, -0.190469f, -0.032743f, -0.044728f, 0.128746f, 0.000122f, 0.156238f, 
-0.191925f, -0.067134f, -0.160331f, -0.169455f, -0.059240f, -0.049295f, -0.125351f, 0.075480f, -0.120909f, 0.047414f, 
-0.134259f, 0.032295f, -0.104171f, -0.087701f, -0.052975f, 0.020107f, -0.050425f, 0.087884f, -0.080696f, 0.001081f, 
0.062015f, 0.065201f, -0.006612f, -0.158778f, -0.032363f, -0.061833f, -0.081221f, 0.028467f, -0.165820f, 0.077221f, 
0.026817f, 0.256328f, 0.029348f, -0.069323f, 0.003509f, 0.141827f, -0.051500f, 0.180411f, -0.174554f, -0.040348f, 
-0.042215f, 0.231431f, 0.061631f, -0.055903f, 0.066980f, 0.151791f, 0.008503f, 0.127515f, -0.275214f, 0.047622f, 
-0.036723f, 0.242216f, 0.022380f, -0.104047f, -0.018979f, 0.114329f, 0.035858f, 0.091227f, -0.287479f, -0.044796f, 
-0.010403f, 0.111171f, 0.079818f, -0.088262f, -0.074477f, 0.013982f, 0.002198f, 0.111913f, -0.185201f, 0.017264f, 
0.007449f, 0.195410f, -0.045857f, 0.005343f, 0.007601f, 0.047906f, 0.034635f, 0.124843f, -0.287948f, -0.076279f, 
-0.015377f, 0.090999f, 0.034045f, -0.114430f, -0.046405f, 0.095919f, 0.101762f, 0.015529f, -0.213162f, -0.087460f, 
0.025137f, 0.094244f, 0.067430f, -0.049505f, -0.020859f, 0.076956f, 0.065390f, 0.053737f, -0.234238f, -0.011853f, 
0.026894f, 0.066838f, 0.049573f, -0.121614f, -0.074549f, 0.066674f, 0.023054f, 0.106023f, -0.325705f, -0.054508f, 
0.020118f, 0.014853f, 0.031771f, -0.122117f, 0.019879f, 0.038026f, 0.090027f, 0.119706f, -0.248178f, -0.120059f, 
0.075345f, 0.202759f, 0.044783f, -0.115111f, -0.005767f, 0.113447f, 0.094674f, 0.153659f, -0.232306f, -0.025780f, 
-0.023800f, 0.173666f, 0.026120f, -0.089711f, 0.007407f, 0.087992f, 0.064910f, 0.130741f, -0.256391f, 0.018204f, 
0.053235f, 0.244682f, 0.011932f, -0.081228f, 0.010709f, 0.123067f, -0.048799f, 0.145322f, -0.269499f, -0.018249f, 
0.024810f, 0.218237f, -0.049915f, -0.128228f, -0.031688f, 0.123764f, -0.045105f, 0.114886f, -0.283781f, 0.000271f, 
0.044634f, 0.175732f, -0.009027f, -0.149989f, -0.054827f, 0.020927f, 0.031928f, 0.158479f, -0.204470f, 0.010463f, 
-0.052773f, 0.197795f, 0.065081f, -0.014845f, 0.053615f, 0.045465f, 0.019943f, 0.188724f, -0.235787f, 0.011845f, 
0.038267f, 0.119437f, 0.059081f, -0.058154f, 0.071958f, 0.059834f, 0.033863f, 0.051069f, -0.261054f, -0.046360f, 
-0.040344f, 0.179600f, -0.013849f, -0.014122f, -0.035458f, -0.015409f, 0.033662f, 0.099052f, -0.144323f, -0.008062f, 
0.074495f, 0.131563f, 0.107817f, -0.108019f, -0.054684f, 0.067496f, 0.041487f, 0.128835f, -0.150669f, -0.099462f, 
0.094573f, -0.015089f, 0.177357f, 0.022563f, -0.065704f, -0.062161f, -0.045774f, -0.019924f, -0.223072f, -0.066191f, 
0.087570f, 0.040838f, 0.147081f, 0.040156f, 0.010875f, -0.040648f, -0.133645f, 0.067050f, -0.123314f, -0.191794f, 
0.037553f, -0.032133f, 0.203244f, 0.050805f, -0.066747f, -0.111925f, -0.126285f, 0.046916f, -0.136808f, -0.155707f, 
0.070883f, -0.021526f, 0.196359f, -0.073943f, -0.131838f, -0.029116f, 0.014180f, 0.089006f, -0.167924f, -0.115165f, 
0.117702f, 0.220524f, 0.104597f, -0.059562f, -0.004815f, -0.146753f, 0.093681f, 0.010903f, -0.375017f, -0.178939f, 
0.025498f, 0.188030f, -0.049275f, -0.176626f, -0.010729f, -0.052748f, 0.177251f, 0.109137f, -0.266391f, -0.069760f, 
-0.010451f, 0.182934f, -0.020585f, -0.203727f, -0.018479f, 0.114885f, 0.180356f, 0.091432f, -0.251157f, -0.075717f, 
0.013677f, 0.088648f, 0.007121f, -0.183284f, -0.059985f, 0.043591f, 0.074135f, 0.099757f, -0.212832f, -0.042638f, 
-0.059461f, 0.208333f, -0.038174f, -0.038031f, 0.009904f, 0.111940f, 0.056627f, 0.071757f, -0.190877f, -0.024083f, 
-0.045037f, 0.186580f, 0.027037f, -0.052657f, 0.059062f, 0.130507f, -0.049343f, 0.126639f, -0.175421f, 0.037056f, 
-0.053853f, 0.118916f, -0.054372f, -0.121542f, -0.037581f, 0.002431f, -0.047291f, 0.164489f, -0.249806f, 0.010033f, 
-0.061393f, 0.169139f, 0.005362f, 0.034731f, 0.036282f, -0.040220f, 0.010493f, 0.174029f, -0.168024f, -0.022749f, 
-0.003531f, 0.081555f, 0.061918f, 0.046815f, -0.019876f, -0.115318f, 0.042678f, 0.085017f, -0.089384f, -0.166807f, 
-0.011314f, 0.047055f, 0.090852f, 0.128903f, -0.088842f, -0.293526f, -0.061246f, 0.148603f, -0.179710f, -0.176124f, 
-0.161683f, 0.067343f, 0.234475f, 0.271420f, -0.075937f, -0.251529f, -0.133748f, 0.061531f, -0.151799f, -0.211014f, 
-0.115933f, -0.034219f, 0.259049f, 0.190948f, -0.050918f, -0.157040f, -0.262357f, 0.035189f, 0.030998f, -0.189733f, 
-0.188921f, -0.200284f, 0.219093f, 0.284339f, -0.145657f, -0.048166f, -0.257917f, -0.011790f, -0.016650f, -0.106931f, 
-0.039007f, -0.114759f, 0.086411f, 0.092164f, -0.232481f, -0.004477f, -0.234594f, -0.116836f, -0.036128f, -0.093056f, 
0.083856f, -0.165137f, 0.110207f, 0.027395f, -0.123331f, 0.059795f, -0.127360f, -0.002594f, 0.021544f, 0.029764f, 
-0.154667f, -0.260270f, 0.015693f, -0.130716f, -0.100329f, 0.099847f, 0.018376f, -0.093095f, 0.014571f, -0.050572f, 
-0.184177f, -0.237289f, -0.169868f, -0.302731f, -0.042645f, 0.112755f, 0.107178f, 0.002583f, 0.100554f, -0.077048f, 
-0.232877f, -0.164770f, -0.260425f, -0.343100f, 0.088040f, 0.271200f, 0.130033f, 0.078199f, 0.083886f, -0.221217f, 
-0.052580f, 0.005233f, -0.188685f, -0.183081f, 0.015070f, 0.303881f, -0.052822f, 0.157058f, -0.182560f, -0.113495f, 
-0.051063f, 0.099879f, -0.064366f, -0.165247f, 0.036657f, 0.074702f, -0.099249f, 0.048978f, -0.156224f, -0.027778f, 
-0.011967f, 0.158417f, -0.025207f, 0.008988f, -0.101251f, 0.038858f, 0.013750f, 0.150233f, -0.222614f, -0.114838f, 
0.050871f, 0.179723f, -0.000628f, 0.014210f, -0.062649f, -0.031193f, -0.082408f, 0.069593f, -0.217129f, -0.163246f, 
-0.078390f, 0.058616f, 0.074310f, 0.145243f, -0.039865f, -0.110513f, -0.075676f, 0.132656f, -0.068329f, -0.290645f, 
-0.075968f, 0.033615f, 0.148741f, 0.083797f, -0.005169f, -0.127961f, -0.148728f, 0.209637f, -0.068247f, -0.374047f, 
-0.220114f, -0.029799f, 0.137488f, 0.070843f, -0.013549f, -0.230060f, -0.271521f, 0.158234f, -0.110321f, -0.204821f, 
-0.249466f, -0.077873f, 0.180499f, 0.237053f, -0.256647f, -0.106125f, -0.282996f, 0.167588f, -0.001296f, 0.089056f, 
-0.099403f, -0.153374f, 0.062341f, 0.123685f, -0.449329f, -0.134677f, -0.153514f, 0.154266f, -0.073237f, 0.179384f, 
0.071574f, -0.257168f, 0.149997f, 0.142148f, -0.517430f, 0.063475f, -0.131067f, 0.053634f, -0.066454f, 0.052304f, 
0.036920f, -0.485576f, 0.062589f, -0.087553f, -0.567059f, 0.270814f, 0.021936f, -0.049407f, -0.011748f, 0.121964f, 
-0.050741f, -0.564459f, 0.035622f, -0.123200f, -0.430898f, 0.339739f, 0.142406f, -0.055240f, 0.012225f, 0.110428f, 
-0.007657f, -0.221317f, -0.142499f, -0.255481f, -0.150254f, 0.208372f, 0.145996f, -0.124315f, 0.013035f, 0.012864f, 
-0.145966f, -0.101739f, -0.392865f, -0.328179f, -0.008921f, 0.293559f, 0.201873f, 0.020623f, -0.008422f, -0.221808f, 
-0.143562f, -0.077438f, -0.186514f, -0.160828f, 0.084417f, 0.265761f, 0.027930f, 0.021196f, -0.124253f, -0.235672f, 
-0.194062f, 0.017663f, -0.089244f, -0.057978f, -0.059535f, 0.190619f, 0.014783f, 0.072194f, -0.125794f, -0.124879f, 
-0.005375f, 0.163918f, -0.006560f, -0.044205f, 0.022666f, -0.033306f, -0.091788f, 0.169215f, -0.239188f, -0.136975f, 
-0.040015f, 0.121081f, 0.145462f, 0.010604f, -0.083388f, -0.050816f, 0.036086f, 0.033269f, -0.084552f, -0.190871f, 
-0.088423f, 0.000305f, 0.008705f, 0.038818f, 0.026300f, -0.098332f, -0.047260f, 0.092123f, -0.019796f, -0.233204f, 
-0.109798f, -0.003009f, 0.067900f, 0.065171f, -0.072649f, -0.116070f, -0.162274f, 0.166554f, -0.118508f, -0.174968f, 
-0.050038f, -0.009277f, 0.153361f, 0.173625f, -0.115940f, -0.108629f, -0.253846f, 0.130700f, -0.027051f, -0.112301f, 
0.025283f, -0.081501f, 0.143480f, 0.194124f, -0.394087f, -0.127370f, -0.317990f, 0.183353f, 0.049959f, -0.092173f, 
-0.125662f, 0.031567f, 0.105449f, 0.233539f, -0.467988f, -0.021240f, -0.228524f, 0.170607f, 0.014086f, -0.046176f, 
-0.017844f, -0.217898f, 0.158326f, 0.043923f, -0.324473f, 0.053007f, -0.095212f, 0.103560f, -0.069287f, 0.011693f, 
-0.003723f, -0.512684f, -0.013623f, 0.054246f, -0.410438f, 0.229739f, 0.050614f, 0.090382f, -0.010858f, 0.039139f, 
0.040972f, -0.405106f, -0.118753f, -0.136422f, -0.402323f, 0.287368f, 0.142145f, 0.003076f, 0.044533f, 0.038852f, 
-0.044597f, -0.170687f, -0.265995f, -0.188097f, -0.231800f, 0.380802f, 0.245716f, -0.043044f, 0.078317f, -0.034779f, 
-0.130904f, -0.080784f, -0.315049f, -0.258934f, 0.067123f, 0.283704f, 0.134524f, -0.110417f, -0.063823f, -0.155072f, 
-0.242201f, -0.056830f, -0.054648f, -0.178953f, 0.037357f, 0.190020f, 0.061459f, 0.113413f, -0.076014f, -0.130586f, 
-0.148740f, 0.002196f, -0.018358f, -0.106620f, 0.088255f, 0.122284f, -0.050091f, 0.046140f, -0.051366f, -0.134674f, 
0.039023f, 0.232055f, -0.052737f, 0.007399f, -0.040017f, -0.052868f, -0.058306f, 0.065864f, -0.270781f, 0.014720f, 
0.053315f, 0.114978f, -0.021209f, -0.048165f, -0.036983f, 0.009692f, -0.076894f, -0.021907f, -0.000005f, 0.035464f, 
-0.105227f, 0.032139f, 0.097447f, 0.126478f, -0.020432f, -0.056454f, -0.152983f, 0.071825f, -0.001576f, -0.009180f, 
-0.143021f, -0.018882f, 0.094743f, 0.058345f, -0.079226f, -0.065248f, -0.194177f, 0.070739f, -0.091512f, -0.110349f, 
-0.021235f, -0.003562f, 0.218779f, 0.180579f, -0.202559f, -0.035212f, -0.354839f, 0.064455f, -0.083157f, 0.006144f, 
-0.048648f, -0.061919f, 0.209168f, 0.131260f, -0.207535f, 0.014537f, -0.451093f, 0.034119f, 0.080311f, -0.033941f, 
-0.205136f, 0.064939f, 0.199374f, 0.187825f, -0.280424f, -0.053257f, -0.323052f, 0.105183f, 0.017695f, 0.007071f, 
-0.037694f, -0.151386f, 0.073468f, 0.128695f, -0.076152f, 0.103114f, -0.237157f, 0.105865f, -0.043771f, -0.007004f, 
0.050615f, -0.266144f, 0.073678f, 0.109935f, -0.217978f, 0.238317f, -0.028427f, 0.061030f, -0.131078f, -0.043450f, 
-0.141092f, -0.296404f, -0.033198f, 0.002566f, -0.321929f, 0.217422f, 0.039639f, 0.029838f, 0.047669f, -0.033779f, 
-0.119680f, -0.214767f, -0.151626f, 0.034290f, -0.138425f, 0.191537f, 0.158978f, -0.005152f, 0.096345f, -0.233960f, 
-0.291407f, -0.075468f, -0.081927f, 0.028202f, -0.098323f, 0.319568f, -0.026578f, 0.049151f, 0.052559f, -0.249913f, 
-0.265110f, 0.010577f, -0.004457f, -0.142147f, -0.087593f, 0.264878f, -0.402776f, 0.000521f, -0.116263f, -0.094783f, 
-0.086304f, 0.090565f, -0.074876f, -0.173349f, -0.151346f, 0.332646f, -0.161323f, -0.010057f, -0.110687f, -0.144323f, 
-0.039431f, 0.229989f, -0.089100f, -0.025381f, -0.020322f, 0.091223f, -0.006175f, 0.234522f, -0.273882f, -0.009687f, 
-0.036376f, 0.126750f, -0.089715f, -0.083266f, -0.032293f, -0.051082f, -0.063272f, 0.171845f, -0.106772f, 0.037502f, 
-0.010322f, -0.103146f, 0.036761f, -0.031683f, -0.090324f, 0.114517f, 0.001724f, 0.085081f, 0.001148f, 0.028802f, 
-0.240386f, -0.091959f, 0.091747f, 0.110329f, -0.110302f, 0.061378f, -0.233947f, 0.026197f, 0.001280f, 0.024551f, 
-0.220984f, -0.112193f, 0.109031f, 0.047223f, -0.046764f, 0.063901f, -0.230541f, 0.166760f, -0.051386f, -0.038454f, 
-0.221567f, -0.010486f, 0.044235f, 0.137906f, 0.014778f, -0.029987f, -0.424497f, 0.024246f, -0.058503f, -0.046184f, 
-0.240017f, 0.041045f, -0.013279f, 0.117021f, -0.068761f, 0.029091f, -0.317712f, -0.014906f, -0.012127f, -0.028145f, 
-0.115828f, -0.136559f, -0.111018f, 0.157074f, -0.016002f, 0.133180f, -0.082872f, -0.045188f, -0.144503f, 0.238936f, 
-0.064480f, -0.179198f, -0.056162f, 0.126939f, -0.236050f, 0.203835f, -0.043833f, 0.036230f, -0.018741f, 0.088857f, 
-0.153273f, -0.191694f, -0.134675f, 0.189703f, -0.162344f, 0.052079f, 0.115540f, 0.072433f, 0.154889f, -0.115222f, 
-0.112613f, -0.102905f, -0.144618f, 0.098951f, -0.030048f, -0.001331f, -0.064006f, -0.017129f, 0.099468f, -0.239128f, 
-0.168300f, -0.042493f, -0.037328f, 0.029560f, 0.064811f, -0.037857f, -0.103267f, -0.077818f, 0.101915f, -0.174017f, 
-0.185664f, 0.119652f, 0.211437f, -0.138874f, 0.043394f, 0.155731f, -0.191605f, -0.111257f, -0.070757f, -0.046792f, 
-0.175592f, 0.180684f, 0.211691f, -0.194184f, -0.148301f, 0.224655f, -0.108038f, 0.105585f, -0.205882f, -0.063594f, 
0.019170f, 0.248138f, 0.040930f, -0.045452f, -0.093303f, 0.096335f, -0.005505f, 0.143090f, -0.233139f, -0.020294f, 
0.051076f, 0.086673f, -0.119085f, -0.124348f, 0.019300f, 0.031337f, 0.018648f, 0.111050f, -0.126910f, -0.015893f, 
-0.006976f, 0.105958f, -0.189753f, -0.096915f, 0.102700f, 0.146699f, -0.027480f, 0.105057f, -0.052764f, -0.015154f, 
-0.073825f, 0.087408f, -0.104745f, 0.061296f, 0.124653f, 0.180903f, -0.119852f, 0.005018f, -0.116389f, -0.007843f, 
-0.116619f, -0.166000f, -0.050001f, 0.092068f, 0.063285f, 0.177547f, -0.262396f, 0.090818f, -0.029684f, -0.083220f, 
-0.152748f, -0.068584f, -0.071014f, 0.185262f, 0.125858f, 0.035170f, -0.334285f, 0.089687f, -0.124229f, 0.032574f, 
-0.194782f, -0.049399f, -0.127695f, 0.100330f, 0.111483f, 0.120644f, -0.199899f, -0.240750f, -0.010548f, 0.207717f, 
-0.312417f, -0.137435f, -0.060282f, 0.141566f, 0.079943f, 0.123679f, -0.043319f, -0.321409f, -0.123015f, 0.290767f, 
-0.276839f, -0.143282f, -0.094381f, 0.132672f, -0.033935f, 0.047003f, 0.022370f, -0.033086f, 0.021385f, -0.020977f, 
-0.069325f, -0.178103f, -0.082774f, 0.150896f, 0.120969f, -0.095220f, 0.003229f, 0.062783f, 0.114914f, -0.156987f, 
-0.010255f, -0.071785f, -0.035069f, 0.044041f, 0.119925f, -0.077187f, -0.035893f, 0.124007f, 0.185918f, -0.207041f, 
-0.110349f, 0.067478f, 0.173126f, -0.239761f, 0.051293f, -0.170895f, 0.028077f, -0.054431f, 0.033249f, -0.181370f, 
-0.067221f, 0.217166f, 0.433500f, -0.266828f, -0.074715f, -0.213218f, -0.046618f, 0.028105f, -0.118209f, -0.246297f, 
-0.035004f, 0.189762f, 0.246103f, -0.170418f, -0.120052f, 0.023469f, -0.115460f, 0.123591f, -0.199102f, -0.110278f, 
-0.015576f, 0.129902f, -0.014369f, 0.013087f, -0.008790f, -0.011580f, -0.030488f, 0.064318f, -0.209303f, 0.025294f, 
0.075353f, 0.133501f, -0.003375f, -0.040754f, 0.037784f, 0.013553f, -0.000879f, 0.071661f, -0.120426f, 0.038911f, 
0.056274f, 0.051448f, -0.000971f, -0.085703f, 0.135053f, 0.091861f, 0.038870f, -0.051684f, -0.065062f, -0.031553f, 
-0.095498f, 0.125829f, -0.125306f, 0.091437f, 0.030612f, 0.069996f, -0.062836f, 0.056544f, -0.140114f, 0.003327f, 
-0.117559f, -0.094251f, -0.103887f, 0.025471f, -0.049049f, 0.153445f, -0.062867f, 0.018075f, -0.117545f, 0.011815f, 
-0.164131f, 0.088057f, -0.062805f, 0.125832f, 0.034086f, 0.131012f, -0.150842f, -0.018215f, -0.131559f, 0.095773f, 
-0.460888f, 0.124623f, 0.036886f, 0.153058f, -0.007194f, 0.036948f, -0.325954f, -0.157263f, -0.090448f, 0.176787f, 
-0.319000f, -0.087278f, -0.028938f, 0.201994f, 0.106579f, -0.025483f, -0.088868f, -0.231101f, -0.071738f, 0.133657f, 
-0.121799f, -0.156976f, -0.033841f, 0.057504f, 0.079825f, -0.032375f, -0.017609f, -0.045406f, 0.020819f, 0.004597f, 
0.017995f, -0.365992f, 0.069716f, -0.048357f, 0.024334f, -0.093601f, 0.014230f, 0.047099f, 0.023721f, -0.162729f, 
0.035622f, -0.055755f, 0.196816f, -0.041751f, 0.070355f, -0.267046f, 0.087746f, 0.155152f, 0.130111f, -0.339961f, 
0.049633f, 0.088607f, 0.345070f, -0.301696f, -0.019472f, -0.206758f, 0.034208f, 0.034742f, -0.210855f, -0.262924f, 
-0.001133f, 0.136676f, 0.414803f, -0.127738f, -0.110200f, -0.156910f, -0.079274f, 0.037889f, -0.387612f, -0.319296f, 
0.029595f, 0.079462f, 0.250272f, -0.082106f, -0.093654f, 0.081562f, -0.063835f, -0.101170f, -0.232129f, -0.121936f, 
0.018412f, 0.170029f, 0.044462f, 0.024553f, 0.037229f, 0.038153f, -0.020640f, 0.081418f, -0.272750f, -0.114846f, 
0.001349f, -0.010719f, -0.009024f, 0.040651f, 0.056307f, 0.012780f, -0.095686f, 0.011447f, -0.037142f, -0.187962f, 
0.029861f, -0.046580f, 0.062988f, 0.001118f, 0.055612f, 0.148654f, 0.087664f, -0.046287f, -0.129881f, -0.100272f, 
0.038454f, 0.041603f, 0.060993f, 0.111229f, -0.021896f, 0.111047f, -0.015438f, 0.007835f, -0.171631f, -0.036873f, 
-0.060129f, -0.041538f, -0.087556f, 0.063885f, -0.002664f, 0.214573f, -0.072264f, -0.125211f, -0.204386f, 0.059780f, 
-0.000398f, -0.010690f, -0.077235f, 0.110962f, -0.078431f, 0.158199f, 0.001049f, -0.097242f, -0.154208f, 0.239032f, 
-0.112873f, 0.000490f, 0.103184f, 0.129295f, -0.045147f, 0.047318f, -0.095817f, -0.052880f, -0.089263f, 0.143881f, 
-0.018637f, -0.084036f, 0.078144f, 0.065244f, 0.072959f, 0.017008f, -0.020823f, -0.046221f, -0.145066f, 0.045535f, 
0.007163f, -0.266771f, 0.126121f, 0.020497f, -0.019481f, 0.019093f, 0.113113f, -0.073012f, -0.115815f, 0.002913f, 
0.102647f, -0.274721f, 0.152864f, 0.019816f, -0.016548f, -0.148394f, 0.152969f, 0.020363f, -0.053559f, -0.220930f, 
-0.021980f, 0.075411f, 0.292370f, -0.211112f, 0.035979f, -0.100298f, 0.044658f, 0.022206f, -0.205724f, -0.339050f, 
-0.024222f, 0.085341f, 0.399598f, -0.129821f, -0.016560f, -0.117021f, -0.086305f, -0.033120f, -0.153362f, -0.199586f, 
-0.102971f, 0.107471f, 0.219212f, 0.018998f, -0.061187f, -0.170113f, -0.021835f, -0.036819f, -0.182156f, -0.261493f, 
-0.126605f, 0.202038f, 0.212567f, -0.216872f, -0.012685f, 0.099113f, -0.016874f, 0.083260f, -0.142264f, -0.144773f, 
-0.052990f, 0.150269f, 0.071834f, 0.010540f, 0.037804f, 0.061667f, -0.024606f, 0.119951f, -0.278319f, -0.080993f, 
0.068000f, 0.070895f, 0.102924f, 0.071592f, -0.059339f, -0.012989f, -0.032106f, 0.128584f, -0.094727f, -0.077113f, 
-0.017167f, -0.119059f, 0.055266f, 0.041600f, 0.014411f, -0.060843f, -0.100700f, -0.048064f, -0.003278f, -0.027370f, 
-0.052678f, 0.006686f, -0.044498f, 0.130007f, -0.029558f, 0.094610f, 0.009994f, -0.109400f, -0.056614f, -0.025475f, 
0.037670f, 0.046182f, -0.056881f, 0.057373f, -0.099753f, 0.147247f, -0.000944f, -0.175729f, -0.080782f, 0.024061f, 
0.055897f, -0.050906f, -0.040289f, 0.025268f, -0.103457f, 0.042368f, 0.089534f, -0.136777f, -0.125539f, 0.074330f, 
0.013814f, -0.105929f, -0.022890f, 0.016617f, -0.068249f, 0.059121f, 0.112541f, -0.135491f, -0.043222f, -0.015243f, 
0.095140f, -0.085186f, 0.003650f, 0.078001f, 0.001220f, -0.010488f, 0.108271f, -0.118686f, -0.062422f, -0.065879f, 
0.009155f, -0.059245f, 0.190788f, 0.017800f, -0.070408f, -0.065770f, 0.105335f, -0.235918f, 0.014125f, -0.164633f, 
-0.040563f, 0.155765f, 0.299072f, -0.023469f, -0.070125f, -0.103739f, 0.086296f, -0.168422f, -0.100380f, -0.114963f, 
-0.053350f, 0.111645f, 0.315484f, -0.120944f, -0.013367f, -0.062344f, -0.054678f, -0.087826f, -0.065458f, -0.069398f, 
-0.051086f, 0.087221f, 0.191190f, -0.151355f, -0.028828f, -0.001626f, -0.109342f, -0.108509f, -0.058303f, -0.174211f, 
-0.200365f, 0.163358f, 0.106851f, -0.147238f, -0.157537f, -0.011798f, 0.007217f, -0.063227f, -0.017832f, -0.046288f, 
-0.056229f, 0.250793f, 0.000172f, -0.065511f, -0.123606f, -0.028789f, -0.055044f, 0.088369f, -0.161473f, 0.075228f, 
0.043544f, 0.190635f, 0.116306f, -0.034791f, -0.014216f, 0.048493f, -0.088404f, 0.023595f, -0.240442f, -0.004448f, 
0.021634f, 0.144627f, 0.039127f, -0.128172f, -0.004757f, -0.004394f, -0.157213f, -0.054315f, -0.046627f, -0.071253f, 
0.023320f, 0.198616f, -0.000256f, -0.023321f, -0.109403f, -0.050350f, -0.085380f, -0.091371f, 0.021293f, -0.086853f, 
0.001263f, 0.068692f, -0.033897f, 0.069009f, 0.025908f, 0.036082f, -0.058956f, -0.086569f, -0.003486f, -0.063862f, 
-0.071842f, 0.104996f, 0.038245f, 0.055643f, -0.061965f, 0.136652f, 0.003562f, -0.160495f, -0.100947f, -0.097973f, 
0.065978f, -0.040208f, -0.060044f, 0.013866f, -0.146815f, 0.081955f, 0.043241f, -0.144296f, -0.047072f, -0.015769f, 
0.001004f, -0.083001f, -0.104400f, 0.057442f, -0.180820f, 0.049438f, 0.120002f, -0.048154f, 0.033312f, -0.109334f, 
-0.012062f, -0.071873f, 0.007310f, 0.041680f, -0.142767f, 0.018201f, 0.132743f, -0.097762f, 0.072727f, -0.123431f, 
0.067109f, 0.091360f, 0.030278f, 0.065675f, -0.063224f, -0.002694f, 0.144938f, -0.222952f, -0.020481f, -0.112461f, 
-0.032711f, 0.141833f, 0.097081f, -0.060453f, -0.061118f, 0.027754f, -0.052377f, -0.158497f, -0.024490f, -0.112036f, 
-0.045778f, 0.087444f, 0.177261f, -0.009010f, 0.028478f, 0.007337f, -0.036476f, -0.256002f, -0.048263f, -0.138805f, 
-0.065383f, 0.112820f, 0.115867f, -0.079338f, 0.016702f, 0.007657f, -0.049228f, -0.207020f, -0.090086f, -0.039340f, 
-0.058916f, 0.082637f, 0.026471f, -0.208858f, -0.068082f, 0.054422f, -0.004796f, -0.096532f, -0.123375f, 0.161914f, 
-0.077492f, 0.164577f, -0.029938f, -0.177774f, -0.038317f, 0.108165f, -0.010336f, 0.125944f, -0.323750f, 0.101453f, 
-0.044417f, 0.187939f, -0.037767f, -0.029298f, -0.015138f, 0.048611f, 0.039707f, 0.115108f, -0.169872f, -0.022444f, 
-0.062257f, 0.181087f, 0.014089f, 0.058016f, -0.057654f, 0.039915f, -0.016684f, 0.066569f, -0.183903f, -0.003346f, 
0.010237f, 0.124847f, -0.043655f, 0.009944f, -0.142362f, -0.000840f, -0.242663f, 0.138715f, -0.072281f, -0.006414f, 
0.079557f, 0.041740f, -0.045311f, 0.013630f, -0.007670f, 0.069666f, -0.081146f, 0.041312f, -0.032644f, 0.035005f, 
0.054369f, 0.064386f, 0.068618f, 0.093838f, -0.015456f, 0.034496f, -0.173784f, -0.005251f, -0.104926f, 0.027587f, 
0.037560f, -0.016272f, 0.003206f, 0.129962f, -0.066134f, 0.043853f, -0.002752f, -0.147580f, -0.065288f, -0.001947f, 
0.087349f, -0.017349f, 0.032727f, 0.067982f, -0.033599f, 0.051533f, -0.059953f, -0.108134f, 0.036667f, -0.076968f, 
0.083029f, 0.052984f, -0.004199f, 0.024328f, -0.109834f, 0.043342f, -0.013825f, -0.077017f, 0.008916f, -0.090253f, 
-0.007834f, 0.037219f, 0.075198f, -0.028075f, -0.112988f, 0.024935f, -0.019602f, -0.084548f, -0.021460f, -0.079253f, 
0.026508f, 0.062861f, 0.124350f, 0.059030f, 0.056847f, 0.050363f, -0.018775f, -0.221871f, -0.008887f, -0.041291f, 
-0.064162f, -0.015164f, 0.108196f, 0.019032f, 0.030946f, -0.005183f, -0.023818f, -0.189442f, 0.066789f, -0.031514f, 
-0.079027f, 0.014549f, 0.064686f, -0.163493f, 0.079355f, 0.081517f, -0.019772f, -0.101628f, -0.058817f, 0.103817f, 
-0.020980f, 0.084755f, 0.027226f, -0.088237f, -0.020470f, 0.038598f, -0.087378f, -0.042574f, -0.199567f, 0.069743f, 
-0.009297f, 0.131489f, 0.043544f, -0.091323f, 0.011145f, 0.185774f, -0.019657f, 0.057201f, -0.278022f, 0.065055f, 
-0.004640f, 0.142767f, -0.013730f, -0.118534f, -0.001312f, 0.047026f, 0.049263f, 0.098442f, -0.234418f, 0.021402f, 
0.038752f, 0.087223f, -0.039187f, 0.001987f, -0.003406f, 0.021173f, 0.030176f, 0.103732f, -0.276202f, 0.094993f, 
-0.055410f, 0.045636f, -0.197205f, 0.029290f, -0.099988f, 0.052538f, -0.036222f, 0.019157f, -0.275070f, 0.119843f, 
-0.197758f, 0.025849f, -0.241749f, 0.082070f, -0.038469f, 0.070583f, -0.100785f, 0.043192f, -0.224196f, 0.126476f, 
-0.181987f, -0.044498f, -0.153789f, 0.222676f, -0.088339f, 0.107056f, -0.235445f, 0.059012f, -0.067529f, 0.152535f, 
-0.189269f, -0.173996f, -0.197772f, 0.178470f, -0.113734f, 0.049026f, -0.219890f, -0.039414f, -0.010504f, 0.116381f, 
-0.207892f, -0.093044f, -0.022020f, 0.294391f, -0.171462f, 0.099019f, -0.132191f, 0.009390f, -0.018610f, -0.033438f, 
-0.220654f, -0.036793f, 0.024145f, 0.179558f, -0.066646f, 0.139401f, -0.041528f, -0.057383f, 0.043532f, -0.028669f, 
-0.231859f, -0.100642f, 0.064036f, 0.068282f, -0.093116f, 0.167152f, -0.084558f, -0.021415f, 0.058037f, 0.066798f, 
-0.292714f, 0.023184f, -0.090486f, 0.034918f, -0.056379f, 0.157482f, -0.136175f, 0.044010f, -0.045560f, 0.127543f, 
-0.151308f, 0.071668f, -0.175341f, -0.032064f, -0.210603f, 0.128587f, -0.077717f, 0.134171f, -0.143434f, 0.072474f, 
-0.083486f, 0.156994f, -0.118541f, -0.104720f, -0.155062f, 0.186731f, -0.074777f, 0.084971f, -0.335555f, 0.152090f, 
0.021015f, 0.233541f, 0.035226f, -0.036626f, -0.014629f, 0.195912f, -0.072006f, 0.108821f, -0.301807f, -0.053039f, 
0.073497f, 0.169415f, -0.029859f, -0.023297f, -0.036348f, 0.032100f, 0.042220f, 0.168556f, -0.179921f, 0.036718f, 
0.040185f, -0.008236f, -0.033334f, -0.095394f, -0.071448f, 0.083090f, -0.005285f, 0.055662f, 0.039964f, -0.056573f, 
-0.047189f, 0.017293f, -0.007411f, -0.012999f, -0.072041f, -0.062164f, 0.027463f, 0.038610f, -0.092997f, 0.023585f, 
-0.051616f, 0.002461f, 0.025220f, -0.017498f, -0.045311f, -0.111572f, 0.050686f, -0.044442f, -0.001865f, -0.013495f, 
-0.081732f, -0.058375f, -0.007445f, 0.028786f, -0.200996f, -0.144706f, 0.097964f, -0.152360f, -0.083748f, -0.074564f, 
-0.126679f, -0.209327f, 0.012145f, 0.104165f, -0.265503f, -0.009665f, 0.206188f, -0.144264f, -0.156264f, -0.156839f, 
-0.031678f, -0.131318f, 0.041471f, 0.080531f, -0.383412f, -0.015884f, 0.053741f, -0.267224f, -0.012824f, -0.226366f, 
-0.093250f, -0.088091f, 0.139072f, 0.143127f, -0.377983f, -0.011066f, 0.121569f, -0.230895f, -0.029538f, -0.413699f, 
-0.057079f, -0.125309f, -0.007826f, 0.109133f, -0.152503f, -0.015528f, -0.022846f, -0.126105f, -0.103004f, -0.353247f, 
-0.189618f, -0.072376f, 0.061662f, 0.092884f, -0.146742f, 0.160041f, -0.007249f, -0.128732f, -0.054205f, -0.279603f, 
-0.153858f, -0.105060f, -0.058892f, 0.087255f, -0.206409f, 0.192818f, -0.022445f, -0.165068f, -0.041139f, -0.158111f, 
-0.253356f, -0.185577f, -0.197015f, 0.034966f, -0.137389f, 0.050526f, 0.116361f, -0.012466f, -0.023903f, -0.123736f, 
-0.087138f, -0.203262f, 0.023448f, -0.011079f, -0.187834f, 0.015501f, 0.024262f, -0.104394f, 0.067351f, -0.198036f, 
0.031913f, -0.078683f, -0.053428f, -0.135779f, -0.077274f, -0.166156f, 0.055543f, -0.075001f, 0.011366f, -0.076399f, 
0.052702f, -0.046786f, -0.029105f, -0.080068f, -0.027744f, 0.003126f, -0.044340f, 0.069262f, -0.043622f, 0.082100f, 
-0.050768f, 0.019942f, -0.023935f, 0.053507f, 0.025605f, 0.018176f, 0.018297f, -0.026905f, -0.037907f, -0.016661f, 
-0.108894f, 0.039805f, -0.102286f, 0.129213f, -0.041758f, -0.116921f, 0.021606f, -0.032482f, -0.100641f, -0.059156f, 
-0.082802f, 0.090985f, -0.077070f, 0.047886f, -0.010863f, -0.102705f, 0.045043f, 0.048077f, -0.059843f, -0.172811f, 
0.012065f, 0.069896f, 0.017347f, 0.041205f, -0.034036f, -0.059619f, -0.005813f, 0.066067f, 0.031454f, -0.040018f, 
-0.016723f, -0.060875f, 0.036235f, -0.030971f, -0.134071f, 0.077839f, 0.016888f, -0.055022f, -0.008695f, 0.008034f, 
-0.044745f, -0.088875f, 0.089069f, -0.040618f, -0.136619f, 0.032079f, -0.056021f, -0.049293f, -0.058288f, 0.129188f, 
0.011168f, -0.079591f, 0.107455f, 0.021744f, -0.210501f, 0.024484f, -0.053999f, -0.000679f, 0.061549f, 0.034276f, 
-0.023362f, -0.058675f, 0.051457f, -0.005933f, 0.011051f, 0.035241f, 0.071633f, 0.022073f, -0.043932f, -0.081823f, 
-0.032478f, -0.034447f, 0.060971f, 0.044396f, -0.088031f, 0.086503f, 0.007354f, -0.008684f, 0.055722f, -0.168120f, 
0.002796f, 0.002053f, 0.116337f, -0.045862f, -0.104259f, 0.007443f, 0.045135f, -0.071010f, 0.011006f, -0.134897f, 
-0.005904f, 0.050000f, -0.005839f, 0.162762f, -0.052157f, 0.045600f, 0.105622f, -0.352942f, -0.046296f, -0.156060f, 
-0.096076f, -0.034549f, 0.005956f, 0.069501f, -0.085655f, -0.011390f, 0.067075f, -0.227852f, -0.003606f, -0.190664f, 
-0.129632f, -0.035486f, 0.021331f, -0.012637f, 0.018232f, -0.030628f, 0.097110f, -0.255797f, -0.053476f, -0.421496f, 
-0.132785f, -0.234243f, -0.103898f, -0.223137f, -0.013147f, 0.066515f, 0.035772f, -0.054868f, 0.024929f, -0.049175f, 
-0.088398f, 0.024581f, -0.052697f, 0.024849f, -0.039578f, -0.031449f, -0.102693f, 0.084878f, -0.013940f, -0.052222f, 
0.037720f, -0.048993f, 0.068709f, 0.089671f, 0.059616f, -0.098305f, -0.082873f, -0.027877f, -0.025429f, -0.286187f, 
-0.044664f, -0.046923f, 0.063525f, 0.037325f, 0.007971f, 0.001767f, -0.069482f, -0.035291f, -0.003139f, -0.038937f, 
-0.084627f, -0.023805f, -0.008212f, 0.067399f, -0.024706f, 0.084245f, 0.037228f, -0.004064f, -0.039286f, 0.073092f, 
-0.098959f, -0.035836f, 0.038843f, 0.098620f, -0.096179f, 0.035387f, -0.089302f, 0.114999f, -0.004161f, -0.029044f, 
-0.016974f, 0.021314f, -0.018344f, 0.099311f, -0.114613f, 0.004498f, -0.035717f, 0.044875f, -0.044147f, -0.042973f, 
-0.027956f, 0.015763f, 0.012174f, 0.137761f, -0.205230f, -0.045601f, -0.043948f, 0.051944f, -0.016663f, 0.023405f, 
-0.010910f, -0.088027f, -0.038652f, 0.108866f, -0.088549f, -0.113046f, -0.036524f, -0.015691f, 0.020414f, 0.084297f, 
-0.064285f, 0.073203f, -0.103276f, 0.064048f, -0.076883f, -0.078346f, -0.020480f, 0.024807f, 0.028507f, 0.097973f, 
0.028231f, -0.011242f, -0.036249f, -0.082562f, -0.047300f, 0.027929f, -0.039411f, 0.115017f, 0.002335f, -0.042484f, 
-0.025998f, 0.087263f, -0.093426f, 0.062867f, -0.009402f, 0.061730f, -0.000267f, -0.017757f, 0.016795f, 0.029445f, 
-0.010877f, 0.049149f, -0.008917f, 0.074900f, -0.010271f, -0.120240f, -0.047850f, -0.064766f, -0.023323f, -0.011247f, 
0.119259f, 0.011778f, 0.038520f, 0.017113f, 0.108580f, -0.190270f, 0.064138f, -0.184291f, -0.035016f, -0.153080f, 
-0.133841f, -0.234955f, -0.098361f, -0.016047f, 0.148640f, 0.060198f, -0.005519f, -0.272185f, 0.087056f, -0.087762f, 
-0.031667f, -0.050633f, -0.055628f, 0.053430f, -0.100698f, -0.153115f, -0.166088f, 0.012016f, 0.018206f, -0.160697f, 
-0.056679f, -0.096610f, 0.043047f, 0.048585f, -0.100615f, -0.149215f, -0.139561f, 0.068749f, -0.037616f, -0.066597f, 
-0.041436f, -0.034678f, 0.025666f, 0.076402f, -0.060008f, -0.153441f, -0.099748f, 0.136815f, -0.039343f, -0.095796f, 
-0.161585f, 0.086434f, 0.048016f, 0.120155f, 0.016776f, -0.108889f, 0.093138f, 0.240273f, -0.113958f, -0.122436f, 
-0.118531f, 0.097275f, -0.025222f, 0.010495f, -0.019505f, -0.066601f, 0.048863f, 0.200990f, 0.043409f, -0.248186f, 
-0.024565f, -0.009355f, -0.125888f, -0.026971f, 0.137199f, -0.032587f, 0.113871f, 0.224755f, -0.072430f, -0.236460f, 
-0.025263f, 0.082014f, -0.015225f, 0.037403f, 0.107277f, -0.101326f, 0.012234f, 0.096710f, -0.145313f, -0.080696f, 
0.099356f, 0.128071f, 0.041124f, 0.005189f, 0.155205f, -0.099021f, -0.067509f, -0.036128f, -0.034452f, -0.048517f, 
0.035501f, 0.102583f, -0.040373f, -0.054056f, 0.138502f, -0.013982f, -0.113427f, -0.052910f, 0.011759f, 0.010069f, 
0.025882f, 0.010998f, 0.007699f, 0.001007f, 0.097402f, -0.000022f, -0.187320f, 0.008828f, 0.038556f, -0.063280f, 
0.004343f, 0.033637f, -0.082693f, 0.033183f, -0.025307f, -0.025119f, -0.215615f, -0.020865f, 0.064699f, -0.006398f, 
-0.037226f, 0.069019f, 0.015432f, 0.021114f, 0.028736f, -0.065139f, -0.141734f, -0.030290f, 0.006737f, 0.021235f, 
0.062851f, -0.002869f, 0.047316f, 0.059405f, -0.010616f, -0.111566f, -0.147773f, -0.061074f, 0.075554f, -0.124142f, 
-0.095782f, -0.153304f, -0.102185f, 0.009338f, 0.101457f, -0.017516f, 0.009382f, -0.251223f, 0.003490f, -0.120689f, 
-0.039641f, 0.008612f, -0.038312f, 0.134242f, -0.126802f, -0.117161f, -0.141936f, 0.155670f, -0.134608f, -0.201270f, 
-0.044390f, -0.162896f, 0.149332f, 0.064787f, -0.241878f, -0.146514f, -0.122455f, 0.061531f, -0.038453f, -0.058105f, 
-0.034040f, -0.024432f, 0.210617f, 0.102794f, -0.075610f, -0.219756f, -0.019649f, 0.099796f, -0.056602f, -0.082979f, 
-0.118852f, 0.056006f, 0.047932f, -0.048703f, 0.076961f, -0.119200f, 0.113918f, 0.121677f, -0.094800f, -0.235059f, 
-0.072781f, 0.001362f, -0.090955f, -0.284495f, 0.173069f, 0.054109f, 0.099628f, 0.251588f, 0.064999f, -0.121358f, 
-0.022762f, -0.183460f, -0.140165f, -0.357439f, 0.220695f, 0.159359f, 0.141901f, 0.182780f, 0.070316f, -0.090888f, 
0.006570f, 0.066945f, -0.051672f, -0.338680f, 0.179877f, 0.128794f, 0.108027f, 0.051882f, 0.008057f, -0.079614f, 
-0.084514f, 0.175066f, 0.095909f, -0.116901f, 0.230513f, -0.092349f, -0.054191f, -0.118714f, 0.046215f, -0.091406f, 
0.093854f, -0.050286f, 0.079305f, -0.048515f, 0.148300f, -0.211433f, -0.129636f, -0.041391f, 0.006325f, -0.000578f, 
0.126544f, -0.090565f, -0.003863f, -0.049912f, 0.085345f, -0.200020f, -0.232498f, 0.082375f, 0.073373f, 0.100586f, 
0.122477f, 0.007137f, -0.006147f, 0.007363f, 0.044557f, -0.153616f, -0.205854f, 0.052488f, 0.023520f, 0.022410f, 
0.117897f, -0.017009f, 0.061478f, -0.031616f, 0.029812f, -0.251119f, -0.037018f, 0.102039f, 0.112484f, 0.038887f, 
0.058671f, 0.064985f, 0.038672f, 0.096656f, 0.001826f, -0.165477f, -0.113835f, 0.002552f, 0.095220f, -0.003309f, 
-0.019177f, -0.150801f, -0.153854f, -0.147144f, -0.018777f, 0.076752f, -0.050579f, -0.206641f, 0.119870f, -0.062016f, 
-0.073876f, 0.046559f, -0.163040f, -0.065181f, -0.102440f, -0.003521f, -0.067466f, 0.068462f, -0.092503f, -0.012705f, 
0.023831f, 0.049986f, -0.117487f, -0.077661f, -0.142232f, -0.085503f, -0.093009f, 0.185663f, 0.035039f, -0.008521f, 
0.071143f, 0.072786f, 0.110627f, 0.034696f, -0.021433f, -0.236429f, 0.082435f, 0.049718f, -0.180987f, 0.008346f, 
-0.086406f, 0.104989f, -0.069334f, -0.181164f, 0.059470f, 0.024745f, 0.111398f, -0.042399f, 0.096805f, 0.038875f, 
-0.041806f, -0.313921f, -0.286036f, -0.279350f, 0.165389f, 0.112016f, 0.160660f, -0.108225f, 0.049937f, 0.148868f, 
-0.062828f, -0.296568f, -0.253134f, -0.365212f, 0.273113f, 0.113123f, 0.120992f, -0.227309f, 0.109445f, 0.065612f, 
-0.107294f, -0.111252f, -0.069744f, -0.294981f, 0.143346f, 0.101028f, 0.015907f, -0.188057f, 0.070951f, 0.149129f, 
-0.124247f, 0.063455f, -0.067700f, -0.165674f, 0.151138f, -0.021464f, 0.127870f, -0.107002f, 0.106773f, 0.079821f, 
-0.050681f, 0.029481f, 0.039781f, -0.022688f, 0.059010f, -0.281996f, -0.103015f, -0.017942f, 0.000054f, 0.112370f, 
0.191885f, -0.007005f, 0.059777f, 0.012549f, 0.130944f, -0.259798f, -0.254208f, 0.021207f, 0.025414f, 0.050147f, 
0.129914f, -0.019095f, 0.044695f, -0.107933f, 0.064431f, -0.352045f, -0.204876f, -0.056348f, 0.153460f, 0.090290f, 
0.118487f, -0.068932f, 0.038996f, -0.014867f, 0.111416f, -0.375307f, -0.070648f, 0.068047f, 0.064995f, 0.079139f, 
0.167755f, -0.028920f, -0.075080f, -0.014657f, -0.065158f, -0.258875f, -0.101564f, 0.030689f, 0.036683f, 0.036702f, 
0.005740f, -0.167129f, -0.125309f, -0.690714f, -0.016744f, 0.062165f, -0.112826f, -0.267950f, 0.100082f, -0.119203f, 
-0.117527f, 0.097092f, -0.020123f, -0.012576f, -0.002868f, -0.100019f, -0.052689f, 0.140183f, -0.123249f, -0.092935f, 
0.069050f, 0.046358f, 0.117012f, 0.019382f, 0.015827f, -0.178949f, -0.017673f, -0.009899f, -0.046537f, -0.035500f, 
0.008611f, 0.019488f, 0.264054f, -0.031275f, 0.005525f, -0.092609f, -0.147386f, -0.121987f, -0.058357f, 0.113213f, 
-0.025753f, 0.063593f, -0.082332f, -0.057613f, 0.079370f, -0.033931f, 0.054608f, -0.277974f, 0.069317f, 0.117023f, 
0.061079f, -0.221059f, -0.194962f, -0.114846f, 0.116801f, -0.059692f, 0.074178f, -0.407445f, 0.140618f, 0.165022f, 
-0.022016f, -0.221317f, -0.226464f, -0.287069f, 0.115988f, 0.060747f, 0.009709f, -0.250697f, 0.175206f, 0.147239f, 
0.068981f, -0.199621f, -0.077192f, -0.306792f, 0.123695f, 0.091830f, 0.078524f, -0.099212f, 0.029193f, -0.024088f, 
0.033886f, 0.002548f, -0.041786f, -0.101671f, 0.060065f, 0.029182f, 0.129286f, -0.075615f, 0.029339f, -0.217804f, 
-0.132577f, 0.139368f, -0.067309f, -0.042762f, -0.011819f, -0.137808f, -0.154223f, 0.179753f, 0.040883f, -0.053413f, 
-0.017130f, -0.043800f, 0.038880f, 0.026474f, 0.180104f, -0.197177f, -0.254244f, 0.161116f, 0.010229f, 0.046373f, 
0.112843f, -0.053342f, 0.065373f, -0.002206f, 0.016994f, -0.114245f, -0.190791f, 0.019498f, -0.012520f, 0.057265f, 
0.034798f, 0.021051f, 0.008701f, -0.060796f, 0.015167f, -0.198088f, 0.043179f, 0.124477f, -0.058816f, 0.109531f, 
0.146341f, -0.095940f, -0.058853f, -0.122344f, -0.103349f, -0.224021f, 0.107891f, -0.067661f, 0.004584f, 0.026897f, 
0.037525f, -0.152959f, 0.082619f, -0.321837f, -0.242197f, 0.043744f, 0.038564f, -0.297883f, -0.012808f, -0.220604f, 
-0.126805f, -0.024367f, 0.029645f, 0.032124f, 0.010829f, -0.091666f, -0.064480f, -0.006617f, -0.051533f, -0.131306f, 
-0.029047f, -0.178018f, 0.160133f, 0.013907f, -0.074494f, 0.035633f, -0.089027f, 0.087464f, -0.019841f, -0.284483f, 
-0.099800f, 0.008352f, 0.096707f, 0.034920f, -0.127880f, 0.082201f, -0.208547f, -0.161864f, 0.032154f, 0.039233f, 
0.038223f, -0.023603f, -0.221085f, 0.102607f, 0.051816f, -0.094945f, 0.172986f, -0.173389f, 0.092174f, 0.201624f, 
0.083511f, -0.157196f, -0.381516f, 0.053283f, 0.141898f, -0.131887f, 0.119759f, -0.114753f, -0.055952f, 0.170025f, 
0.126287f, -0.041886f, -0.412243f, -0.012097f, 0.184285f, -0.010115f, 0.128805f, -0.092426f, -0.062313f, 0.096685f, 
0.178056f, -0.368712f, -0.121488f, -0.231625f, 0.068467f, 0.137982f, 0.136089f, -0.031567f, 0.082032f, -0.132478f, 
0.134667f, 0.134508f, 0.124709f, -0.050338f, -0.005212f, 0.001210f, 0.122927f, -0.171328f, 0.011984f, -0.351933f, 
-0.022359f, 0.233881f, -0.061348f, -0.006698f, -0.030714f, -0.004238f, -0.035998f, 0.026599f, 0.067578f, 0.013459f, 
0.071151f, -0.011874f, 0.033203f, -0.008651f, 0.060716f, -0.029905f, -0.039255f, 0.092894f, -0.027429f, 0.052578f, 
0.010204f, -0.058148f, 0.081426f, 0.042753f, 0.016759f, -0.061105f, 0.043176f, 0.094104f, -0.022622f, 0.005462f, 
-0.005672f, 0.007837f, -0.073870f, -0.083726f, 0.083529f, -0.025974f, -0.028921f, 0.091460f, -0.022012f, 0.136460f, 
0.113403f, -0.100753f, -0.151554f, -0.121622f, -0.013942f, -0.115204f, 0.158696f, -0.012291f, -0.116938f, 0.029253f, 
0.094422f, 0.014969f, 0.111813f, -0.039138f, -0.222957f, -0.064869f, 0.079513f, -0.174056f, 0.008869f, -0.354179f, 
-0.109886f, -0.062822f, -0.032830f, 0.090087f, -0.058592f, -0.075827f, -0.078101f, -0.023820f, -0.140552f, -0.183522f, 
-0.015039f, -0.225347f, -0.046897f, 0.098488f, -0.032146f, 0.088852f, -0.125267f, -0.002607f, -0.100466f, -0.226518f, 
-0.092820f, -0.080595f, -0.028507f, 0.095397f, -0.087514f, 0.206823f, -0.237697f, -0.103880f, -0.114969f, -0.044332f, 
0.155021f, -0.135359f, -0.120319f, 0.180187f, -0.132046f, 0.042196f, 0.141670f, -0.029799f, -0.139824f, 0.181352f, 
0.154335f, -0.114102f, -0.235039f, -0.002828f, 0.064524f, 0.003071f, 0.120215f, 0.106461f, -0.313966f, 0.132966f, 
0.163699f, 0.058082f, -0.182445f, -0.148331f, 0.024275f, -0.135998f, 0.072715f, 0.170053f, -0.000954f, -0.134662f, 
0.174917f, -0.029794f, -0.050423f, -0.152669f, 0.076066f, -0.000706f, 0.062271f, -0.143791f, 0.097890f, -0.254470f, 
0.141180f, 0.170659f, 0.142980f, -0.005960f, -0.172342f, -0.002039f, 0.060014f, -0.137411f, 0.052218f, -0.389099f, 
-0.117979f, 0.114558f, 0.048673f, -0.054835f, -0.012531f, -0.135120f, -0.004321f, 0.039911f, 0.082590f, -0.012117f, 
0.059446f, -0.071302f, -0.055500f, -0.024545f, 0.077926f, -0.002480f, 0.054040f, -0.032537f, 0.062766f, 0.009208f, 
0.032642f, -0.091378f, -0.052522f, -0.036966f, -0.001786f, 0.017642f, 0.132649f, 0.114287f, -0.012272f, -0.022619f, 
0.061454f, 0.076017f, -0.101821f, -0.034495f, 0.034400f, 0.042897f, 0.086339f, 0.087945f, -0.107573f, 0.013990f, 
0.128142f, -0.072078f, -0.207904f, 0.008623f, 0.023112f, 0.070915f, 0.101460f, -0.035731f, -0.128045f, -0.099483f, 
0.086420f, 0.016437f, -0.008100f, 0.093080f, -0.216160f, 0.033809f, -0.005938f, -0.068677f, 0.024854f, -0.406280f, 
-0.147156f, -0.027575f, 0.036081f, 0.134417f, -0.019571f, 0.036257f, -0.085934f, -0.127019f, -0.130340f, -0.146302f, 
-0.159299f, 0.052925f, -0.032368f, 0.040734f, -0.071922f, 0.053375f, -0.145147f, -0.171668f, -0.074942f, -0.111808f, 
-0.159477f, 0.198888f, -0.102802f, 0.111825f, -0.219624f, 0.193326f, -0.185770f, -0.052128f, -0.120474f, -0.087969f, 
0.033521f, -0.051975f, -0.110527f, -0.028434f, -0.186204f, 0.008553f, 0.063622f, 0.107027f, -0.054800f, 0.048460f, 
0.120647f, -0.066253f, -0.073536f, -0.067508f, -0.141149f, -0.085304f, 0.098250f, 0.218686f, 0.011040f, -0.078833f, 
0.128980f, -0.110105f, 0.061086f, -0.191456f, -0.110522f, -0.183647f, 0.162761f, 0.135614f, 0.122904f, -0.181674f, 
0.219668f, 0.037172f, 0.136977f, -0.171844f, -0.199180f, -0.078565f, 0.154481f, -0.027775f, 0.123280f, -0.253668f, 
-0.094405f, 0.169350f, 0.135850f, -0.116121f, -0.071616f, -0.034589f, -0.020929f, -0.123469f, 0.010615f, -0.107543f, 
-0.057239f, 0.087585f, 0.046252f, -0.108799f, -0.041155f, 0.011498f, 0.092054f, -0.092940f, 0.043872f, 0.000687f, 
0.016046f, -0.181343f, -0.047008f, 0.048325f, -0.107852f, 0.042279f, 0.143097f, -0.021468f, 0.033167f, -0.086409f, 
-0.018457f, 0.001650f, -0.044278f, 0.075841f, -0.026898f, -0.020656f, 0.138280f, -0.001251f, 0.035442f, -0.102120f, 
-0.029324f, -0.017868f, -0.154141f, -0.060552f, 0.006493f, 0.014694f, -0.007789f, -0.027278f, 0.008313f, -0.009836f, 
0.025663f, 0.021255f, -0.096671f, 0.064292f, -0.083764f, 0.094675f, 0.017805f, -0.071706f, 0.039085f, -0.113660f, 
-0.001669f, 0.024816f, -0.020687f, -0.012905f, -0.102517f, 0.096380f, 0.031483f, -0.118346f, 0.010324f, -0.114894f, 
-0.054882f, -0.021692f, 0.061885f, 0.048389f, -0.049858f, 0.029482f, 0.001351f, -0.120555f, -0.136894f, -0.028206f, 
-0.220466f, 0.067412f, -0.088302f, 0.140008f, -0.190521f, 0.033533f, -0.144404f, 0.071163f, -0.153117f, -0.164735f, 
-0.190107f, 0.129998f, 0.009091f, 0.149488f, -0.003289f, 0.155842f, -0.174601f, -0.013153f, -0.316672f, -0.094146f, 
0.123049f, -0.161339f, 0.005739f, -0.101290f, -0.059999f, -0.044466f, -0.215016f, 0.000827f, 0.140148f, 0.003615f, 
0.188360f, -0.283547f, 0.108216f, -0.189228f, -0.148216f, -0.062159f, 0.112420f, -0.175358f, 0.202818f, -0.109690f, 
0.116884f, -0.164946f, 0.135758f, -0.142984f, -0.245131f, -0.079457f, 0.145881f, 0.009206f, 0.281984f, -0.106318f, 
0.149253f, 0.077665f, 0.043030f, -0.344075f, -0.024836f, -0.186057f, 0.108518f, -0.050453f, 0.175164f, -0.067242f, 
-0.058908f, -0.010809f, 0.084039f, -0.256611f, 0.022285f, -0.140326f, 0.048500f, 0.048932f, 0.031753f, -0.000377f, 
-0.061895f, -0.070207f, 0.056185f, -0.003463f, 0.010035f, -0.064357f, 0.081464f, -0.032875f, 0.036477f, -0.036754f, 
0.049110f, -0.059769f, 0.038951f, 0.140235f, -0.030670f, -0.025516f, 0.109449f, -0.113902f, 0.104823f, -0.136576f, 
-0.071716f, 0.146058f, -0.004759f, 0.076151f, -0.048933f, -0.060334f, 0.019132f, -0.125731f, 0.093176f, -0.017914f, 
0.057716f, 0.037200f, -0.057877f, -0.051191f, 0.040438f, 0.027914f, -0.019555f, -0.017823f, -0.037427f, -0.034867f, 
0.000108f, -0.058765f, -0.026417f, -0.003349f, -0.067659f, 0.063717f, -0.025128f, -0.245393f, 0.179318f, -0.061218f, 
-0.123243f, 0.164888f, -0.101598f, -0.124410f, -0.229414f, 0.101093f, -0.106218f, -0.109101f, -0.000768f, 0.146032f, 
0.009021f, 0.047869f, -0.142750f, 0.049054f, -0.019064f, 0.015771f, -0.055840f, -0.036332f, -0.126653f, -0.135471f, 
-0.028686f, -0.073019f, -0.226218f, 0.111096f, 0.006115f, 0.058331f, -0.067804f, -0.012814f, -0.239953f, -0.016026f, 
-0.070931f, -0.138985f, 0.037942f, 0.121779f, -0.077816f, 0.022147f, -0.058600f, -0.029426f, -0.359458f, 0.054030f, 
0.031039f, 0.029382f, 0.044323f, -0.075615f, -0.136832f, 0.060357f, -0.301425f, -0.117203f, 0.005373f, -0.122539f, 
0.156865f, 0.111064f, 0.090829f, -0.088494f, 0.095218f, 0.004322f, -0.173349f, -0.007335f, 0.078045f, -0.250852f, 
0.200531f, 0.208281f, -0.091288f, -0.226191f, 0.058622f, -0.134691f, 0.056933f, 0.068878f, 0.159243f, -0.102384f, 
0.110907f, 0.168332f, -0.053241f, -0.282911f, 0.256563f, -0.207981f, 0.108819f, 0.196090f, 0.045543f, -0.020648f, 
-0.066655f, -0.092319f, -0.147506f, -0.163648f, 0.139100f, -0.092419f, -0.021529f, 0.093097f, 0.026194f, 0.007937f, 
-0.063200f, -0.071288f, -0.142433f, -0.064524f, 0.141117f, 0.017896f, -0.037627f, -0.035533f, 0.051927f, -0.040384f, 
-0.140489f, 0.047032f, 0.056040f, 0.060521f, 0.131384f, 0.064996f, -0.012691f, 0.008140f, 0.035356f, 0.006778f, 
-0.075700f, 0.180120f, 0.037122f, -0.036394f, 0.043561f, 0.017657f, -0.010051f, -0.091674f, -0.023242f, -0.000202f, 
-0.127886f, 0.055732f, -0.068890f, 0.052862f, -0.026032f, -0.022074f, -0.074609f, -0.165737f, 0.066607f, -0.055119f, 
-0.044761f, -0.060685f, -0.051302f, -0.080995f, 0.043997f, 0.125971f, 0.007426f, -0.276907f, 0.118993f, -0.006890f, 
-0.134281f, 0.070701f, -0.015366f, -0.194165f, -0.248460f, 0.085759f, -0.114317f, -0.092251f, -0.230710f, 0.189067f, 
0.041679f, 0.042674f, -0.026198f, -0.034809f, -0.059384f, 0.067286f, 0.061276f, 0.034642f, -0.095880f, -0.029406f, 
-0.024836f, -0.008983f, -0.107702f, -0.043525f, -0.021407f, -0.057234f, 0.035097f, -0.060490f, -0.124041f, 0.105080f, 
0.013589f, -0.105431f, 0.133882f, -0.086654f, -0.100410f, -0.110427f, -0.045454f, -0.140390f, -0.206837f, 0.101845f, 
-0.256169f, 0.199728f, -0.017650f, -0.313750f, -0.260505f, -0.116665f, -0.232135f, 0.305937f, -0.266507f, 0.051237f, 
-0.140621f, 0.184366f, -0.044422f, -0.259099f, 0.154576f, -0.275347f, -0.274368f, 0.444479f, -0.385028f, 0.086011f, 
0.021423f, 0.356182f, -0.234408f, -0.258776f, 0.137954f, -0.143807f, -0.192330f, 0.380011f, -0.391094f, 0.128438f, 
-0.196950f, -0.002029f, -0.381537f, -0.240834f, 0.270961f, -0.125534f, -0.195049f, 0.278115f, -0.248177f, 0.136966f, 
-0.187519f, 0.064476f, -0.365212f, 0.008523f, 0.163554f, -0.093848f, -0.231914f, 0.217601f, -0.121216f, 0.133636f, 
-0.162610f, 0.071445f, -0.322266f, -0.014953f, 0.203376f, -0.085637f, -0.158129f, 0.112457f, 0.067472f, 0.073170f, 
-0.069374f, 0.038051f, -0.069951f, 0.055557f, 0.074670f, -0.025817f, -0.139828f, 0.029363f, -0.003912f, 0.055679f, 
-0.125129f, 0.098438f, 0.000173f, 0.042739f, 0.064193f, 0.024671f, -0.004896f, -0.041440f, 0.093085f, -0.052105f, 
-0.176055f, -0.003017f, -0.050932f, -0.106304f, 0.019573f, 0.048203f, 0.000330f, -0.023672f, 0.068692f, 0.092051f, 
0.012257f, -0.259479f, 0.014465f, -0.015210f, 0.078907f, 0.026481f, -0.175405f, -0.059380f, 0.080379f, 0.129598f, 
-0.073234f, 0.027015f, 0.089333f, -0.118637f, -0.097798f, 0.084821f, -0.226935f, -0.099607f, -0.278527f, 0.158315f, 
-0.052320f, 0.085682f, -0.031986f, -0.076134f, 0.040443f, 0.071243f, -0.059857f, -0.019811f, -0.026853f, -0.008720f, 
0.053536f, 0.098815f, -0.032521f, -0.010211f, 0.037128f, -0.024749f, 0.048672f, 0.036352f, -0.036298f, 0.057009f, 
-0.088325f, -0.098241f, -0.107712f, 0.114718f, 0.047362f, 0.019134f, -0.051719f, 0.059836f, -0.103435f, 0.004231f, 
-0.226621f, 0.002318f, -0.373288f, -0.146831f, 0.051365f, -0.159971f, -0.023586f, 0.197692f, -0.417187f, 0.199382f, 
-0.138115f, -0.016593f, -0.436056f, -0.111534f, 0.104612f, -0.301134f, -0.162838f, 0.216099f, -0.304994f, 0.340917f, 
-0.258294f, 0.008262f, -0.443357f, -0.125934f, 0.065736f, -0.204499f, -0.301920f, 0.123705f, -0.225916f, 0.278920f, 
-0.338130f, -0.168432f, -0.518654f, 0.050147f, 0.002882f, -0.124998f, -0.397884f, 0.169343f, -0.116532f, 0.245180f, 
-0.288626f, -0.074403f, -0.491463f, 0.055003f, -0.061207f, -0.037179f, -0.264061f, 0.056809f, -0.092608f, 0.174730f, 
-0.241841f, -0.076509f, -0.305990f, -0.006246f, 0.065236f, -0.067648f, -0.094340f, 0.102508f, -0.020009f, 0.089462f, 
-0.206589f, -0.287628f, -0.057848f, 0.049497f, 0.012349f, -0.023138f, -0.068383f, 0.028004f, -0.012072f, 0.144547f, 
-0.294952f, -0.145019f, -0.165431f, -0.037465f, -0.079366f, -0.023119f, -0.055864f, -0.042965f, 0.062550f, 0.060234f, 
-0.185059f, -0.067936f, -0.104069f, -0.019394f, -0.102398f, 0.004648f, -0.225478f, 0.037682f, -0.122881f, 0.119237f, 
-0.093869f, -0.182741f, -0.040825f, -0.027254f, 0.017054f, 0.116822f, -0.107989f, 0.029905f, -0.128106f, -0.021777f, 
-0.002376f, -0.011522f, 0.076004f, -0.158279f, -0.065210f, 0.064983f, -0.021748f, -0.131845f, -0.175989f, 0.010535f, 
-0.019771f, 0.013280f, 0.044864f, -0.001887f, 0.067777f, -0.023864f, 0.052584f, -0.025121f, 0.027040f, -0.031739f, 
-0.029447f, 0.000973f, -0.049212f, 0.006449f, -0.011173f, -0.020149f, 0.034805f, -0.030228f, 0.042746f, -0.042486f, 
-0.076117f, -0.001703f, -0.049933f, 0.052793f, -0.092465f, 0.003371f, 0.163066f, -0.045231f, -0.030859f, 0.046447f, 
-0.084027f, -0.100992f, -0.078991f, 0.028390f, -0.235848f, -0.161717f, 0.162086f, -0.148609f, -0.069136f, -0.066705f, 
-0.169428f, -0.170663f, 0.005335f, 0.007756f, -0.272855f, -0.052282f, 0.163250f, -0.178636f, -0.166751f, -0.079119f, 
-0.064127f, -0.182121f, 0.123514f, 0.059677f, -0.312558f, -0.030654f, 0.139385f, -0.290439f, -0.082369f, -0.213298f, 
-0.078361f, 0.049437f, 0.033158f, 0.108975f, -0.340914f, -0.049567f, 0.128899f, -0.223071f, -0.063193f, -0.255645f, 
-0.155708f, 0.038972f, -0.005707f, 0.035958f, -0.229957f, 0.098328f, 0.118688f, -0.150690f, -0.118712f, -0.365603f, 
-0.082082f, -0.099780f, -0.043515f, -0.003042f, -0.170076f, 0.175969f, 0.109406f, -0.193093f, -0.119513f, -0.319964f, 
-0.091834f, -0.180059f, -0.064260f, 0.046040f, -0.265801f, 0.091545f, -0.022213f, -0.048155f, -0.124255f, -0.176438f, 
-0.243953f, -0.159783f, -0.101313f, 0.140161f, -0.149170f, 0.112246f, 0.101808f, -0.121107f, -0.142434f, -0.097543f, 
-0.196592f, -0.241614f, -0.041262f, 0.043967f, -0.027274f, 0.035120f, 0.001846f, -0.034780f, 0.000748f, -0.135243f, 
-0.034569f, -0.189282f, 0.032770f, -0.200493f, -0.177929f, -0.007096f, 0.105688f, -0.088837f, 0.017973f, -0.002456f, 
0.001796f, -0.075570f, 0.068119f, -0.017148f, -0.143442f, -0.114110f, -0.003266f, 0.055281f, -0.030640f, -0.054563f, 
-0.015122f, 0.062578f, -0.068977f, 0.022325f, -0.003063f, -0.059345f, 0.053843f, 0.004757f, -0.054774f, -0.013645f, 
-0.145857f, 0.078723f, -0.019656f, 0.047457f, 0.009535f, -0.066978f, -0.035867f, -0.025736f, -0.062034f, -0.024326f, 
-0.029238f, 0.018974f, 0.001903f, 0.022568f, -0.072783f, -0.083292f, 0.150402f, -0.045325f, -0.015779f, -0.141643f, 
-0.022562f, -0.029414f, 0.006946f, 0.083697f, -0.149112f, -0.080803f, 0.150033f, 0.003044f, -0.030279f, -0.187186f, 
0.003653f, 0.053502f, 0.074373f, -0.036205f, -0.136193f, -0.007360f, 0.132753f, -0.056330f, 0.053825f, -0.134846f, 
-0.107568f, 0.056569f, -0.007534f, -0.055405f, -0.144923f, -0.060859f, 0.131322f, -0.151967f, 0.064242f, 0.061020f, 
-0.057709f, -0.051218f, -0.018816f, -0.069068f, -0.082180f, -0.000405f, 0.006081f, -0.090855f, 0.078108f, 0.067454f, 
-0.040172f, 0.094867f, -0.055385f, -0.036894f, 0.025018f, 0.027176f, 0.016836f, -0.044686f, 0.038022f, -0.002354f, 
-0.071464f, 0.058644f, -0.049046f, 0.039300f, -0.029204f, 0.024913f, 0.023463f, 0.006820f, 0.066113f, -0.068046f, 
-0.015714f, 0.004428f, 0.007835f, -0.019524f, -0.052023f, 0.057278f, 0.103424f, -0.010157f, -0.047572f, -0.067278f, 
-0.055601f, 0.037674f, 0.036780f, -0.000418f, -0.075336f, -0.016666f, 0.099284f, -0.196064f, 0.018566f, -0.010029f, 
-0.062773f, 0.080541f, 0.077180f, -0.037463f, -0.008899f, -0.019420f, 0.036438f, -0.316173f, -0.032344f, -0.099401f, 
-0.095368f, -0.053430f, 0.014132f, -0.013734f, 0.068656f, -0.021589f, 0.103379f, -0.403932f, -0.022651f, -0.312744f, 
-0.187811f, -0.120078f, -0.134491f, -0.215914f, 0.097416f, 0.034630f, 0.010188f, -0.099875f, -0.040387f, -0.211347f, 
-0.016643f, 0.084907f, -0.040576f, -0.069201f, -0.081279f, -0.079953f, -0.072833f, 0.114127f, -0.004913f, -0.122106f, 
-0.145018f, 0.064956f, -0.010640f, 0.086272f, -0.042594f, -0.119799f, 0.018920f, -0.042018f, -0.162457f, -0.191108f, 
-0.009147f, 0.088387f, -0.015374f, 0.072964f, -0.056913f, -0.006805f, 0.108163f, -0.076118f, -0.000613f, -0.248174f, 
-0.115041f, -0.121849f, 0.006803f, -0.057512f, -0.049352f, 0.014812f, 0.015484f, 0.037552f, 0.027779f, -0.039277f, 
-0.044440f, -0.091800f, -0.057893f, -0.013344f, -0.030393f, 0.056383f, 0.049321f, -0.035396f, 0.057838f, 0.029467f, 
-0.039318f, -0.003425f, 0.055721f, 0.009035f, -0.100652f, 0.029100f, -0.031244f, -0.025570f, -0.026427f, 0.002976f, 
0.043511f, 0.063461f, -0.046224f, -0.043220f, 0.013014f, 0.051085f, -0.028586f, -0.064353f, 0.044199f, 0.003193f, 
0.025447f, -0.058740f, -0.047782f, -0.030655f, -0.021851f, 0.030649f, -0.038014f, -0.025730f, 0.012642f, 0.049189f, 
-0.078525f, 0.041933f, -0.052643f, -0.035405f, -0.005032f, 0.095553f, 0.078551f, -0.065948f, -0.024403f, 0.020651f, 
0.025987f, 0.015301f, -0.035045f, -0.059352f, 0.003644f, 0.042661f, -0.042964f, 0.040176f, 0.062223f, 0.057137f, 
0.011444f, 0.055582f, -0.093581f, 0.006861f, 0.086930f, 0.071291f, -0.034467f, -0.038540f, -0.020474f, 0.009991f, 
0.052721f, 0.127395f, 0.030770f, -0.028841f, -0.003232f, 0.001843f, -0.010398f, -0.078735f, 0.041286f, -0.089721f, 
0.012664f, -0.011080f, -0.156073f, -0.005476f, 0.154040f, -0.064425f, -0.000966f, -0.077677f, 0.082681f, -0.043077f, 
-0.142909f, -0.289542f, -0.150497f, -0.123829f, 0.114961f, -0.004975f, 0.063831f, -0.203363f, 0.074082f, -0.056039f, 
-0.039128f, -0.101275f, -0.013730f, 0.062383f, -0.036000f, -0.080188f, -0.103757f, 0.078713f, -0.157487f, -0.166607f, 
-0.039461f, 0.123096f, 0.065195f, 0.026295f, -0.028648f, -0.185140f, 0.004310f, 0.000640f, 0.037037f, -0.202160f, 
-0.042420f, -0.132105f, 0.003769f, -0.001816f, 0.017723f, -0.043313f, 0.020455f, -0.049456f, -0.002893f, -0.008279f, 
-0.080629f, -0.072319f, 0.019045f, -0.005591f, -0.048107f, 0.060659f, -0.020994f, -0.038627f, 0.076515f, 0.124286f, 
-0.017642f, -0.094299f, -0.049131f, 0.004197f, -0.028710f, 0.013661f, -0.002370f, -0.013689f, -0.041329f, 0.032117f, 
-0.042198f, -0.162332f, 0.059299f, 0.020006f, -0.058433f, 0.025777f, -0.009866f, -0.059573f, 0.099243f, 0.092627f, 
-0.041762f, -0.114755f, -0.082567f, 0.047510f, -0.125128f, 0.004924f, 0.009985f, -0.047649f, 0.081671f, 0.096307f, 
0.022768f, -0.092762f, -0.048313f, 0.048117f, -0.132975f, -0.044281f, -0.041779f, -0.051590f, -0.021525f, 0.138544f, 
-0.027701f, 0.051474f, -0.092023f, -0.033248f, 0.072389f, -0.002692f, -0.058021f, 0.013041f, -0.020590f, 0.010394f, 
0.015197f, 0.016605f, -0.064656f, -0.040603f, 0.007174f, -0.035281f, -0.071049f, 0.054167f, 0.084337f, -0.004357f, 
-0.080055f, -0.000999f, -0.079200f, -0.007686f, 0.094850f, 0.112161f, -0.038404f, 0.052080f, 0.106348f, -0.041177f, 
0.040639f, 0.103501f, -0.018912f, -0.094201f, 0.068508f, 0.077687f, -0.082859f, -0.036024f, -0.032804f, -0.036272f, 
0.030131f, -0.122279f, -0.079205f, -0.210750f, 0.136958f, 0.035006f, -0.056737f, -0.067212f, 0.031070f, -0.111452f, 
-0.019461f, -0.233967f, -0.266301f, -0.533693f, 0.025341f, 0.187460f, -0.133868f, -0.244638f, 0.050232f, -0.100011f, 
-0.003687f, -0.126967f, 0.014675f, 0.043494f, -0.189800f, -0.309190f, -0.203483f, 0.135681f, -0.012997f, -0.216318f, 
-0.094128f, -0.063527f, 0.048309f, 0.002880f, -0.091511f, -0.158301f, -0.043909f, 0.045810f, -0.002207f, -0.100537f, 
-0.036717f, -0.087181f, 0.040315f, -0.009988f, -0.013651f, 0.067565f, -0.086433f, -0.035120f, 0.079457f, 0.033055f, 
0.017983f, -0.059531f, -0.048169f, 0.012914f, -0.089493f, 0.021021f, 0.090110f, -0.097498f, 0.072094f, 0.128036f, 
0.014406f, -0.064344f, -0.007002f, 0.048633f, -0.050575f, -0.056550f, 0.113007f, -0.009622f, -0.046904f, 0.098242f, 
0.011241f, -0.160795f, -0.034354f, 0.069175f, 0.043626f, -0.153360f, 0.022999f, 0.025390f, -0.029914f, 0.082766f, 
0.033033f, -0.047085f, -0.093823f, 0.194488f, -0.054275f, -0.055286f, -0.042454f, -0.016214f, -0.083331f, 0.095844f, 
0.006833f, 0.108095f, -0.093884f, 0.066308f, -0.067367f, -0.183143f, -0.056493f, -0.032607f, -0.075374f, 0.188833f, 
-0.028617f, 0.010188f, -0.071802f, 0.133307f, 0.021337f, -0.157402f, -0.159329f, 0.086553f, -0.001304f, 0.078158f, 
-0.091583f, 0.035973f, 0.005147f, 0.057990f, 0.054302f, -0.205340f, -0.107741f, 0.169528f, 0.026387f, -0.042226f, 
-0.021055f, -0.001685f, 0.015068f, 0.042081f, 0.010816f, -0.153138f, -0.028077f, 0.127640f, 0.028417f, -0.131908f, 
-0.064972f, -0.022404f, -0.102547f, 0.016449f, 0.072603f, 0.035108f, -0.147755f, 0.154351f, 0.055366f, -0.117912f, 
0.009598f, -0.093634f, -0.138092f, -0.183379f, 0.035277f, 0.186868f, -0.086948f, 0.010386f, 0.061154f, -0.070959f, 
-0.191386f, -0.215257f, -0.138005f, -0.284290f, -0.070718f, 0.259556f, -0.090262f, -0.137458f, 0.030409f, -0.093194f, 
-0.014569f, -0.047863f, 0.037454f, 0.117007f, -0.120720f, -0.230961f, -0.167365f, 0.051776f, -0.033535f, -0.180859f, 
-0.045696f, -0.079664f, -0.041860f, 0.049262f, -0.090629f, -0.038010f, -0.122577f, 0.037232f, 0.043924f, 0.038174f, 
-0.007275f, -0.052072f, -0.146160f, -0.038341f, -0.056602f, 0.018520f, 0.046446f, -0.010924f, 0.055398f, 0.129323f, 
0.020690f, -0.095302f, -0.051442f, -0.002255f, 0.073711f, -0.115456f, -0.002675f, -0.058781f, 0.015984f, 0.009633f, 
0.065537f, -0.024077f, -0.039337f, 0.000412f, 0.132246f, -0.179287f, 0.012861f, 0.004024f, -0.035688f, 0.058129f, 
0.079907f, -0.084692f, -0.035117f, 0.138588f, 0.067044f, -0.120399f, 0.090319f, 0.030517f, -0.080243f, 0.073247f, 
-0.029424f, 0.089521f, -0.100570f, 0.137404f, -0.058826f, -0.131340f, 0.040088f, -0.032280f, -0.077885f, 0.130850f, 
-0.166644f, 0.100895f, -0.138518f, 0.108248f, -0.120494f, -0.217771f, -0.100291f, 0.031708f, -0.002076f, 0.052187f, 
-0.130837f, 0.049666f, -0.124522f, 0.103007f, -0.036871f, -0.330709f, -0.033423f, 0.156490f, 0.045620f, 0.182472f, 
-0.102284f, -0.073758f, -0.056441f, 0.033857f, 0.018372f, -0.336022f, -0.002875f, 0.142023f, 0.099204f, 0.083612f, 
-0.070891f, -0.108577f, 0.008292f, -0.058869f, 0.096517f, -0.197952f, -0.054377f, 0.139521f, 0.124499f, -0.017564f, 
0.004903f, -0.034036f, 0.010905f, -0.083300f, -0.015082f, -0.091176f, -0.067001f, 0.010763f, 0.080570f, -0.100322f, 
-0.046261f, -0.101008f, 0.087618f, -0.276987f, -0.100890f, 0.047510f, 0.086588f, -0.016301f, 0.008501f, -0.089977f, 
-0.081300f, -0.295102f, 0.155218f, -0.197061f, -0.163489f, 0.167545f, -0.165945f, 0.033759f, -0.094325f, -0.347108f, 
0.047885f, 0.015947f, -0.261469f, -0.001020f, -0.107134f, -0.202552f, -0.180317f, 0.047696f, -0.017541f, 0.002690f, 
-0.074518f, -0.026765f, -0.221662f, -0.161271f, -0.056781f, -0.065745f, -0.077935f, 0.033609f, -0.004159f, 0.074587f, 
0.033916f, -0.154955f, -0.105799f, -0.183314f, 0.048832f, -0.161656f, 0.001068f, 0.028148f, -0.028621f, 0.061231f, 
0.122924f, 0.034123f, 0.028914f, -0.017829f, 0.130798f, -0.098521f, 0.135002f, 0.045316f, -0.148199f, -0.021096f, 
0.085038f, 0.010127f, -0.031551f, -0.004995f, 0.031180f, -0.052288f, 0.130852f, 0.027445f, -0.115413f, -0.076460f, 
0.067708f, 0.017386f, -0.042002f, 0.126504f, -0.008618f, -0.081579f, -0.000161f, 0.023325f, -0.058345f, -0.153712f, 
-0.141409f, 0.115271f, 0.011523f, 0.175760f, -0.069654f, -0.098644f, 0.026340f, -0.008414f, -0.029391f, 0.022929f, 
-0.307009f, 0.056659f, 0.036728f, 0.105477f, -0.091559f, -0.177165f, 0.058883f, -0.016947f, 0.016868f, 0.079843f, 
-0.136268f, 0.103322f, 0.009780f, 0.075723f, 0.057119f, -0.169987f, -0.007256f, 0.037415f, 0.080979f, 0.136415f, 
-0.067684f, -0.175351f, -0.009695f, 0.034929f, 0.034101f, -0.274855f, -0.041273f, 0.022500f, 0.117319f, 0.050688f, 
0.025618f, -0.138065f, -0.009491f, -0.134808f, 0.090504f, -0.280520f, 0.027814f, 0.085528f, 0.028342f, 0.119199f, 
-0.021010f, -0.213707f, -0.061659f, -0.099178f, -0.070652f, -0.253677f, 0.023320f, 0.032259f, 0.024788f, -0.008169f, 
0.008437f, -0.098094f, 0.136419f, -0.018404f, -0.121583f, -0.028183f, -0.057685f, 0.057476f, 0.045339f, -0.257954f, 
0.061985f, -0.033345f, 0.217966f, -0.058450f, -0.110511f, 0.191811f, -0.076739f, -0.182505f, -0.125138f, -0.338681f, 
-0.176500f, 0.138341f, -0.123810f, 0.071639f, -0.061660f, -0.126086f, -0.268848f, 0.180387f, -0.082878f, -0.062760f, 
0.057993f, -0.017941f, 0.039679f, -0.083198f, 0.086832f, -0.125441f, -0.176476f, 0.053269f, -0.082440f, 0.088402f, 
0.066549f, -0.053476f, 0.042496f, -0.164956f, 0.061775f, -0.200724f, 0.081682f, 0.051291f, -0.036703f, -0.099076f, 
0.109617f, -0.009282f, 0.143947f, -0.201982f, 0.127321f, -0.270795f, 0.119249f, 0.070730f, 0.079365f, -0.205255f, 
0.085163f, -0.017990f, 0.231731f, -0.173581f, 0.071699f, -0.149734f, 0.119772f, 0.091836f, 0.087120f, -0.232244f, 
0.023683f, 0.046252f, 0.222878f, -0.112414f, -0.013071f, -0.155084f, 0.095765f, 0.000680f, -0.007386f, -0.135915f, 
-0.201257f, 0.015624f, 0.095196f, -0.065008f, -0.031626f, -0.083799f, 0.125275f, -0.067167f, 0.080794f, 0.014364f, 
-0.271517f, 0.107028f, 0.089179f, 0.019313f, 0.062012f, -0.120923f, 0.050593f, 0.031498f, 0.002751f, 0.027474f, 
-0.139574f, 0.016438f, -0.023067f, -0.101437f, 0.048835f, -0.155159f, 0.137785f, 0.007223f, 0.031152f, 0.016613f, 
0.045067f, -0.243936f, 0.044378f, 0.016017f, 0.130354f, -0.066199f, 0.143750f, -0.015097f, -0.085044f, 0.095863f, 
-0.017752f, -0.116362f, 0.017494f, -0.071398f, 0.029517f, -0.045154f, 0.069511f, 0.143213f, -0.057455f, -0.033900f, 
0.109871f, -0.136879f, 0.010852f, 0.018442f, 0.050443f, -0.126615f, 0.065704f, -0.032709f, -0.067274f, -0.072052f, 
0.056452f, 0.029039f, 0.151384f, -0.022154f, -0.001802f, -0.110910f, -0.034451f, -0.122994f, 0.034189f, -0.196571f, 
-0.043642f, 0.045544f, 0.167437f, -0.086476f, -0.191094f, -0.044799f, 0.016060f, -0.112668f, 0.012693f, -0.331624f, 
-0.079990f, 0.084027f, 0.049394f, 0.022143f, 0.059234f, -0.094719f, -0.165692f, -0.070200f, -0.197376f, 0.020242f, 
0.106600f, -0.174921f, 0.132101f, -0.028746f, 0.066013f, -0.143270f, -0.105885f, -0.019465f, -0.086054f, -0.074106f, 
-0.001805f, -0.154734f, 0.079282f, -0.097566f, 0.057523f, -0.119648f, -0.002270f, 0.014619f, 0.150269f, -0.131195f, 
-0.001352f, -0.054622f, 0.174512f, -0.208368f, 0.043703f, -0.131573f, 0.054636f, 0.107181f, 0.126911f, -0.143129f, 
0.071514f, -0.046141f, 0.185257f, -0.343790f, 0.004996f, -0.225039f, 0.056155f, 0.130615f, 0.139386f, -0.188370f, 
-0.034019f, 0.016693f, 0.178588f, -0.190316f, -0.094313f, -0.221030f, 0.089538f, -0.028680f, 0.124015f, -0.122298f, 
-0.218932f, 0.021989f, 0.201798f, -0.170320f, 0.022343f, -0.159947f, 0.038236f, 0.018503f, 0.027997f, -0.021152f, 
-0.086405f, -0.010805f, 0.114399f, 0.003098f, 0.016037f, -0.088934f, 0.062456f, 0.017426f, -0.017302f, 0.088495f, 
-0.014480f, -0.113435f, 0.104770f, 0.038820f, 0.014085f, -0.026021f, 0.087143f, 0.041598f, -0.047139f, 0.030331f, 
0.063243f, -0.093306f, -0.015336f, 0.020056f, 0.043752f, -0.002192f, 0.015109f, 0.005662f, -0.118178f, -0.010494f, 
0.110405f, 0.029427f, -0.050607f, 0.049392f, 0.073907f, 0.010174f, 0.047268f, 0.090675f, -0.033525f, -0.055371f, 
0.078007f, 0.020084f, 0.054025f, 0.005804f, -0.046077f, 0.012962f, -0.048888f, 0.043810f, -0.096454f, -0.186954f, 
-0.077135f, 0.073071f, 0.029317f, -0.099373f, -0.080934f, 0.017205f, -0.032365f, -0.121307f, -0.064639f, -0.108139f, 
-0.154687f, 0.033294f, 0.134522f, -0.201184f, -0.154264f, -0.020486f, -0.033234f, -0.071045f, -0.062322f, -0.184937f, 
-0.060495f, -0.123863f, 0.018017f, 0.048510f, -0.078722f, -0.036768f, -0.140485f, -0.033668f, -0.240578f, -0.231635f, 
-0.040583f, -0.196567f, 0.162670f, 0.036982f, -0.048063f, -0.009322f, -0.138004f, -0.041507f, 0.025215f, -0.114211f, 
-0.009428f, -0.080352f, 0.122061f, -0.051864f, -0.098079f, 0.028575f, -0.088213f, 0.033582f, 0.074625f, -0.142992f, 
0.006151f, 0.087749f, 0.154922f, -0.080138f, 0.054356f, -0.072503f, -0.037856f, -0.008539f, 0.116599f, -0.115066f, 
0.002819f, 0.047391f, 0.088375f, -0.137673f, 0.028855f, -0.028344f, 0.034491f, -0.032296f, 0.115805f, -0.018311f, 
-0.041583f, -0.051690f, 0.074121f, -0.159800f, -0.052911f, -0.025225f, 0.031757f, -0.058962f, 0.100314f, -0.126620f, 
0.017357f, 0.078503f, 0.112393f, -0.089983f, -0.018426f, -0.040957f, -0.004656f, 0.003158f, -0.080261f, 0.057657f, 
0.093006f, -0.055924f, 0.027824f, 0.068806f, 0.029431f, 0.100727f, 0.098318f, 0.025626f, -0.077267f, -0.024425f, 
0.013871f, -0.148865f, -0.009348f, 0.035645f, -0.020367f, -0.002474f, 0.021792f, -0.078505f, -0.011029f, -0.029631f, 
-0.026613f, 0.054018f, -0.038420f, 0.050227f, -0.117702f, -0.020617f, 0.081840f, 0.030996f, -0.042891f, -0.079741f, 
0.063525f, -0.026393f, -0.003205f, -0.000978f, -0.057695f, 0.015449f, 0.032802f, 0.035228f, 0.050350f, -0.149925f, 
0.039552f, -0.004551f, 0.021569f, -0.026502f, -0.060373f, 0.011938f, -0.089416f, -0.060622f, 0.036718f, -0.118010f, 
0.021749f, 0.074006f, 0.131740f, -0.032233f, -0.180475f, -0.005677f, 0.057759f, -0.089735f, -0.016225f, -0.007383f, 
-0.036866f, -0.011174f, 0.130736f, -0.304030f, -0.238000f, 0.051943f, -0.027065f, -0.028619f, -0.203067f, 0.114502f, 
-0.106637f, -0.025946f, 0.095739f, -0.000389f, 0.064416f, -0.095902f, -0.105908f, -0.172321f, -0.112393f, -0.094196f, 
-0.026004f, -0.021054f, 0.080290f, 0.040990f, -0.044429f, -0.039104f, -0.143173f, -0.126255f, 0.102074f, -0.063297f, 
-0.138462f, 0.174191f, 0.094832f, -0.022111f, -0.062886f, -0.057719f, -0.103316f, -0.068604f, 0.132967f, -0.053828f, 
-0.015716f, 0.060219f, 0.072655f, 0.018734f, -0.008442f, 0.091917f, -0.143790f, 0.012613f, -0.032094f, -0.083136f, 
-0.083371f, 0.072784f, 0.037098f, -0.003333f, 0.039687f, 0.036431f, -0.000182f, -0.022879f, -0.104343f, 0.016146f, 
-0.008079f, -0.038528f, -0.032576f, -0.052038f, -0.095767f, 0.103783f, 0.045369f, -0.054086f, -0.063469f, 0.058134f, 
0.035818f, -0.121063f, 0.050462f, 0.066536f, -0.035495f, 0.096869f, 0.068280f, -0.082478f, 0.000562f, -0.035985f, 
0.076276f, -0.080834f, -0.058759f, 0.056473f, -0.102640f, 0.077967f, 0.031093f, -0.084564f, 0.025398f, -0.040694f, 
0.073720f, -0.146527f, -0.039583f, 0.004243f, -0.106748f, 0.073106f, -0.034621f, -0.098783f, 0.078894f, -0.043269f, 
0.006520f, -0.056916f, -0.047193f, 0.114340f, -0.104766f, 0.081419f, -0.049844f, -0.114029f, 0.011974f, -0.078750f, 
0.040839f, -0.061652f, 0.046243f, 0.034461f, -0.147503f, 0.057881f, -0.013679f, -0.250233f, -0.029252f, -0.063751f, 
-0.042362f, 0.009082f, -0.113582f, 0.096632f, -0.040873f, 0.109262f, -0.015435f, -0.183148f, 0.051248f, 0.026662f, 
0.023804f, -0.021643f, 0.114468f, -0.109519f, -0.091358f, 0.158388f, -0.007351f, -0.132121f, -0.030203f, 0.123688f, 
-0.058441f, -0.015545f, 0.173378f, -0.224385f, -0.125849f, 0.042350f, -0.100311f, -0.069959f, -0.128938f, 0.094810f, 
-0.020540f, 0.025449f, 0.217614f, 0.038994f, -0.100224f, -0.115250f, 0.013126f, -0.157614f, -0.225281f, -0.008606f, 
-0.130758f, 0.200065f, 0.072994f, -0.099533f, -0.196933f, -0.059608f, -0.202579f, 0.061976f, 0.040941f, 0.004445f, 
-0.002748f, 0.085980f, -0.012466f, -0.007166f, -0.154222f, -0.099751f, -0.203887f, 0.049655f, 0.025440f, 0.076891f, 
0.024320f, 0.085409f, -0.041538f, 0.038162f, 0.000532f, 0.038889f, -0.144590f, 0.108428f, -0.105521f, 0.136592f, 
-0.077405f, -0.058982f, -0.071074f, 0.073200f, -0.030385f, 0.138994f, -0.074869f, 0.054181f, -0.118178f, 0.025017f, 
-0.031389f, -0.169446f, 0.055355f, 0.085018f, -0.018154f, 0.095370f, 0.005915f, 0.010540f, -0.045222f, -0.018368f, 
0.053738f, -0.193295f, 0.031237f, 0.053630f, -0.041938f, 0.163901f, -0.065696f, -0.043708f, -0.008561f, -0.071775f, 
0.019695f, -0.098950f, -0.035601f, 0.084214f, -0.052056f, 0.032267f, -0.088475f, -0.001251f, 0.055758f, -0.096058f, 
0.023092f, -0.087533f, -0.013664f, 0.109938f, -0.046635f, 0.051591f, -0.033707f, -0.050040f, 0.057174f, -0.061294f, 
0.000675f, 0.018179f, 0.018931f, 0.123661f, 0.032122f, 0.075068f, 0.030768f, -0.120230f, -0.033061f, -0.058140f, 
-0.026279f, -0.056036f, 0.001403f, 0.063493f, -0.003663f, 0.129267f, -0.019890f, -0.199241f, 0.042387f, -0.043953f, 
-0.058264f, -0.147080f, 0.031487f, -0.061927f, -0.007295f, 0.120824f, -0.154881f, -0.182380f, 0.065796f, 0.033857f, 
-0.101232f, -0.113626f, 0.048867f, -0.054604f, 0.043639f, 0.061339f, -0.057617f, -0.170664f, -0.087210f, 0.094675f, 
-0.104733f, -0.008438f, 0.082556f, -0.118886f, -0.057894f, -0.015599f, -0.078495f, -0.148527f, -0.098060f, -0.051683f, 
-0.050573f, -0.096366f, -0.109497f, 0.193161f, -0.056818f, 0.004649f, 0.059062f, 0.062836f, -0.204200f, -0.157955f, 
-0.260338f, -0.081460f, -0.179699f, 0.113462f, -0.079993f, 0.018529f, -0.131249f, 0.168152f, -0.149275f, 0.024689f, 
-0.083705f, -0.161703f, -0.168355f, 0.103117f, -0.005190f, -0.050470f, -0.324806f, 0.136907f, -0.144764f, 0.080069f, 
-0.130944f, -0.034771f, -0.105225f, 0.086809f, -0.006941f, 0.071677f, -0.165776f, 0.048956f, -0.132896f, 0.042282f, 
-0.038067f, 0.012639f, -0.175826f, 0.059308f, -0.046421f, 0.028383f, -0.334345f, 0.037765f, -0.044789f, 0.066311f, 
-0.110799f, -0.101386f, -0.079670f, 0.159170f, -0.084998f, 0.061582f, -0.153503f, -0.064711f, -0.121871f, 0.064020f, 
-0.019805f, -0.016282f, 0.016727f, 0.101139f, -0.094057f, 0.104559f, -0.096860f, 0.040019f, 0.054368f, -0.054149f, 
-0.030281f, -0.104672f, -0.178621f, 0.107659f, -0.018108f, 0.083334f, -0.047806f, 0.002264f, 0.038992f, 0.011716f, 
-0.093547f, 0.074420f, -0.133487f, 0.123231f, -0.023232f, 0.024048f, -0.039216f, 0.008617f, 0.121810f, -0.052240f, 
-0.211532f, 0.060754f, -0.069751f, 0.101990f, -0.018578f, 0.011507f, -0.037665f, -0.016672f, 0.038340f, -0.009793f, 
-0.093187f, -0.052881f, -0.039195f, 0.027774f, 0.068639f, 0.097139f, -0.123553f, -0.109489f, 0.058697f, 0.042435f, 
-0.092534f, -0.046317f, -0.045602f, -0.037919f, 0.009532f, 0.179719f, -0.115763f, -0.099950f, -0.056971f, -0.007259f, 
-0.015151f, 0.010023f, 0.106340f, -0.078791f, 0.040495f, 0.066076f, -0.149963f, 0.004182f, 0.029225f, 0.022791f, 
-0.052777f, 0.064091f, 0.071050f, -0.094745f, 0.037589f, -0.079582f, -0.042923f, -0.072675f, -0.032977f, -0.006161f, 
0.019700f, 0.003621f, -0.166928f, -0.100721f, -0.029934f, 0.111886f, -0.023953f, 0.024728f, -0.037903f, -0.097119f, 
-0.152775f, -0.181433f, -0.370098f, 0.037551f, -0.033813f, -0.187483f, -0.006177f, -0.012061f, -0.335198f, 0.190419f, 
-0.172328f, -0.208538f, -0.273679f, 0.080421f, -0.097793f, -0.130238f, -0.048594f, -0.135993f, -0.177457f, 0.202826f, 
-0.256594f, -0.097754f, -0.404068f, 0.082194f, -0.201226f, -0.103199f, -0.204424f, 0.097738f, -0.230942f, 0.185900f, 
-0.313860f, -0.225803f, -0.456566f, 0.156559f, -0.220578f, -0.142735f, -0.226541f, 0.107136f, -0.104216f, 0.162950f, 
-0.395632f, -0.040396f, -0.264805f, 0.276458f, -0.251867f, -0.113501f, -0.061483f, 0.005738f, -0.101421f, 0.203725f, 
-0.392909f, -0.066223f, -0.172489f, 0.075867f, -0.184276f, 0.008114f, -0.174305f, 0.106487f, -0.174157f, 0.223246f, 
-0.174253f, -0.223048f, -0.210950f, 0.110338f, -0.216504f, 0.035293f, -0.145552f, 0.085020f, 0.028238f, 0.205760f, 
-0.144872f, -0.198532f, -0.359001f, 0.100727f, -0.235178f, 0.061773f, -0.166461f, 0.135386f, -0.053934f, 0.106936f, 
-0.176417f, -0.139758f, -0.244687f, 0.044316f, -0.258845f, 0.139011f, -0.146441f, 0.046310f, -0.077338f, 0.082541f, 
-0.059105f, -0.003119f, -0.118698f, -0.055249f, -0.060075f, 0.116540f, -0.148790f, 0.086601f, -0.189246f, -0.030677f, 
-0.050679f, -0.036926f, -0.059471f, -0.067501f, 0.025682f, 0.075763f, -0.090871f, 0.048831f, -0.037047f, -0.061048f, 
-0.127872f, -0.072054f, -0.100900f, -0.109267f, 0.019553f, -0.004978f, -0.036923f, -0.037348f, 0.007555f, 0.018915f, 
-0.090835f, 0.075661f, 0.016265f, 0.027706f, 0.004981f, 0.066681f, 0.029627f, -0.045213f, -0.123153f, 0.034869f, 
0.002486f, 0.016299f, -0.001773f, 0.059233f, 0.028681f, -0.047121f, 0.048322f, 0.028613f, -0.128051f, 0.012989f, 
-0.028710f, 0.037221f, -0.047393f, 0.020088f, -0.079875f, -0.084182f, 0.006996f, 0.011445f, -0.050666f, 0.057703f, 
-0.109097f, -0.095919f, -0.035975f, 0.061443f, -0.160583f, -0.119139f, 0.176735f, -0.171161f, -0.071106f, -0.086026f, 
-0.184015f, -0.202037f, 0.017772f, 0.002431f, -0.294028f, -0.067764f, 0.141379f, -0.154582f, -0.120769f, -0.053812f, 
-0.151077f, -0.123623f, 0.139147f, -0.091466f, -0.271140f, -0.137383f, 0.133312f, -0.178838f, -0.122758f, -0.246462f, 
-0.076132f, -0.031790f, 0.113632f, 0.012371f, -0.305208f, -0.023632f, 0.094928f, -0.210428f, -0.115984f, -0.200483f, 
-0.175145f, 0.113922f, -0.050703f, -0.071981f, -0.174526f, -0.000167f, 0.102761f, -0.102053f, -0.114282f, -0.335101f, 
-0.172212f, -0.019966f, -0.070127f, 0.043431f, -0.259556f, 0.052075f, 0.057381f, -0.187897f, -0.078710f, -0.283995f, 
-0.140707f, -0.124176f, -0.077322f, 0.052251f, -0.302355f, 0.190145f, 0.072239f, -0.110528f, -0.034167f, -0.137281f, 
-0.187979f, -0.074632f, -0.226455f, 0.089945f, -0.119198f, 0.134779f, 0.196178f, -0.122370f, -0.247877f, -0.097618f, 
-0.178368f, -0.258620f, -0.027049f, -0.091413f, -0.151600f, -0.013970f, 0.205793f, 0.026124f, -0.048150f, -0.197869f, 
0.031643f, -0.079208f, -0.029437f, -0.094543f, -0.061926f, -0.070617f, 0.026313f, -0.040500f, 0.040132f, -0.009139f, 
-0.016691f, 0.002940f, -0.040027f, 0.002665f, -0.051071f, -0.040467f, 0.039939f, 0.048818f, -0.107797f, 0.016789f, 
0.018498f, 0.050508f, -0.000173f, -0.024912f, 0.010249f, 0.006879f, 0.065920f, -0.022319f, -0.085606f, 0.024929f, 
0.043291f, 0.097623f, -0.009713f, -0.033679f, -0.020610f, -0.146189f, 0.021834f, 0.095169f, -0.161026f, -0.065553f, 
-0.105791f, 0.094952f, -0.009395f, 0.130496f, -0.023098f, -0.075821f, 0.151126f, -0.094504f, -0.144513f, -0.022993f, 
-0.125879f, 0.024960f, -0.089348f, 0.113393f, -0.075314f, -0.090639f, 0.024767f, -0.063912f, -0.069633f, -0.207408f, 
-0.098708f, -0.114879f, -0.005055f, -0.037999f, -0.093389f, -0.040492f, 0.091532f, -0.096684f, 0.123528f, -0.135385f, 
-0.096415f, -0.055264f, -0.006907f, -0.023136f, -0.153530f, 0.062001f, 0.124007f, -0.099784f, -0.025967f, -0.037848f, 
-0.080648f, 0.124324f, -0.067878f, 0.055812f, -0.068366f, -0.105014f, 0.025032f, -0.113957f, 0.031291f, 0.083091f, 
-0.016045f, 0.205802f, -0.080506f, 0.018856f, 0.043181f, -0.154272f, 0.097152f, -0.038381f, 0.000808f, -0.192395f, 
-0.080952f, 0.098645f, -0.077587f, -0.022712f, 0.127275f, -0.019985f, 0.124680f, -0.105035f, 0.031384f, -0.376546f, 
-0.035552f, -0.054478f, -0.108013f, -0.237245f, 0.051339f, 0.015355f, 0.141292f, -0.115887f, 0.097455f, -0.254605f, 
-0.073638f, 0.138686f, -0.309130f, -0.193433f, 0.085769f, 0.047937f, 0.238135f, -0.372519f, 0.018626f, -0.131174f, 
-0.027595f, 0.124570f, -0.138761f, -0.231292f, 0.041454f, 0.069475f, 0.165049f, -0.254613f, -0.009102f, -0.200532f, 
-0.081447f, 0.098757f, -0.171812f, -0.200162f, 0.104459f, 0.056604f, 0.064139f, -0.217830f, -0.110160f, -0.274585f, 
-0.186982f, -0.147763f, -0.098507f, -0.126481f, 0.039491f, -0.018624f, -0.109167f, -0.169609f, 0.000857f, -0.118342f, 
-0.085264f, 0.020707f, 0.011671f, 0.054749f, -0.088310f, 0.009099f, -0.055937f, 0.095176f, 0.010863f, 0.064125f, 
-0.046811f, 0.037030f, 0.005563f, -0.061561f, -0.131665f, -0.041883f, -0.107681f, 0.162947f, -0.210964f, -0.168836f, 
-0.030641f, 0.068114f, 0.057725f, 0.043578f, -0.004548f, -0.085358f, 0.049537f, -0.011476f, -0.071109f, -0.339474f, 
-0.025710f, -0.024727f, -0.084553f, 0.040254f, -0.010047f, 0.067175f, 0.039099f, -0.056546f, 0.034854f, 0.013671f, 
-0.009493f, -0.112022f, -0.047230f, -0.089260f, -0.082704f, 0.148145f, 0.074230f, -0.034671f, 0.022538f, 0.057818f, 
-0.047470f, -0.010670f, -0.031899f, -0.025646f, -0.032477f, 0.085747f, 0.095072f, -0.008908f, -0.020319f, 0.022459f, 
0.026452f, 0.094664f, -0.079958f, -0.036732f, 0.060456f, 0.000317f, 0.091747f, 0.055607f, 0.015900f, -0.152866f, 
-0.046919f, 0.125206f, 0.011054f, 0.016374f, 0.252908f, -0.039313f, 0.133916f, -0.165444f, -0.066185f, -0.034147f, 
-0.052587f, 0.147932f, -0.033258f, 0.028899f, 0.239942f, -0.133570f, 0.021048f, -0.311001f, -0.031193f, -0.035077f, 
-0.067965f, 0.191758f, -0.112189f, -0.084109f, 0.325444f, -0.055688f, 0.098505f, -0.227976f, -0.019205f, -0.103384f, 
-0.066886f, 0.275020f, -0.201092f, -0.031577f, 0.259334f, -0.150622f, -0.005379f, -0.193289f, -0.115728f, -0.270663f, 
-0.037501f, 0.298811f, -0.174964f, -0.064491f, 0.245520f, -0.022765f, -0.022285f, -0.006682f, -0.101589f, -0.274429f, 
-0.080981f, 0.136099f, -0.049871f, -0.109483f, 0.262293f, 0.025623f, -0.052155f, 0.003478f, -0.055924f, -0.426960f, 
-0.145319f, -0.232801f, 0.003321f, -0.247051f, 0.016956f, 0.034054f, 0.005898f, -0.108478f, 0.153138f, -0.194793f, 
-0.013348f, 0.030975f, -0.035118f, -0.076715f, 0.060284f, 0.051740f, -0.015536f, -0.066705f, 0.018485f, -0.014024f, 
-0.004481f, 0.012770f, 0.077250f, -0.035774f, -0.059384f, -0.243207f, -0.175474f, 0.101978f, -0.082957f, -0.222229f, 
-0.125042f, -0.003044f, -0.040619f, 0.045462f, -0.065026f, -0.070173f, 0.049867f, -0.013577f, 0.029443f, -0.144950f, 
-0.012321f, -0.006335f, -0.011327f, -0.006735f, -0.037916f, 0.082847f, 0.025394f, -0.028632f, -0.022691f, -0.030809f, 
-0.021100f, -0.030846f, -0.130184f, -0.020557f, -0.021737f, 0.038144f, 0.028232f, 0.049123f, 0.063277f, 0.016987f, 
-0.029596f, 0.044601f, 0.057838f, -0.035633f, 0.039504f, 0.032028f, 0.113558f, -0.035214f, -0.019882f, -0.085881f, 
-0.068210f, 0.059126f, -0.029162f, -0.124724f, 0.188010f, 0.070792f, 0.050896f, 0.034208f, -0.013521f, -0.054646f, 
-0.057662f, 0.009934f, 0.042334f, -0.065809f, 0.204157f, -0.046975f, 0.055406f, -0.050397f, -0.080544f, -0.128877f, 
0.033275f, 0.095900f, 0.049958f, 0.010473f, 0.290677f, -0.220232f, -0.038643f, -0.127317f, -0.136489f, -0.138559f, 
-0.005186f, 0.184083f, 0.036144f, 0.067549f, 0.361066f, -0.387337f, -0.059933f, -0.061099f, -0.120284f, -0.170302f, 
-0.011464f, 0.158812f, 0.046792f, 0.147468f, 0.373587f, -0.399708f, -0.184565f, -0.020100f, -0.040481f, -0.111513f, 
0.031920f, 0.059404f, 0.199137f, 0.101311f, 0.300840f, -0.311555f, -0.152854f, 0.108297f, -0.031529f, -0.350674f, 
0.033516f, -0.006358f, 0.070809f, -0.018910f, 0.277287f, -0.197523f, -0.159598f, 0.068912f, 0.157437f, -0.294602f, 
